{"learner":{"attributes":{},"feature_names":["Age","Gender","Ethnicity","EducationLevel","BMI","Smoking","AlcoholConsumption","PhysicalActivity","DietQuality","SleepQuality","FamilyHistoryAlzheimers","CardiovascularDisease","Diabetes","Depression","HeadInjury","Hypertension","SystolicBP","DiastolicBP","CholesterolTotal","CholesterolLDL","CholesterolHDL","CholesterolTriglycerides","MMSE","FunctionalAssessment","MemoryComplaints","BehavioralProblems","ADL","Confusion","Disorientation","PersonalityChanges","DifficultyCompletingTasks","Forgetfulness"],"feature_types":["float","int","int","int","float","int","float","float","float","float","int","int","int","int","int","int","float","float","float","float","float","float","float","float","int","int","float","int","int","int","int","int"],"gradient_booster":{"model":{"gbtree_model_param":{"num_parallel_tree":"1","num_trees":"200"},"iteration_indptr":[0,1,2,3,4,5,6,7,8,9,10,11,12,13,14,15,16,17,18,19,20,21,22,23,24,25,26,27,28,29,30,31,32,33,34,35,36,37,38,39,40,41,42,43,44,45,46,47,48,49,50,51,52,53,54,55,56,57,58,59,60,61,62,63,64,65,66,67,68,69,70,71,72,73,74,75,76,77,78,79,80,81,82,83,84,85,86,87,88,89,90,91,92,93,94,95,96,97,98,99,100,101,102,103,104,105,106,107,108,109,110,111,112,113,114,115,116,117,118,119,120,121,122,123,124,125,126,127,128,129,130,131,132,133,134,135,136,137,138,139,140,141,142,143,144,145,146,147,148,149,150,151,152,153,154,155,156,157,158,159,160,161,162,163,164,165,166,167,168,169,170,171,172,173,174,175,176,177,178,179,180,181,182,183,184,185,186,187,188,189,190,191,192,193,194,195,196,197,198,199,200],"tree_info":[0,0,0,0,0,0,0,0,0,0,0,0,0,0,0,0,0,0,0,0,0,0,0,0,0,0,0,0,0,0,0,0,0,0,0,0,0,0,0,0,0,0,0,0,0,0,0,0,0,0,0,0,0,0,0,0,0,0,0,0,0,0,0,0,0,0,0,0,0,0,0,0,0,0,0,0,0,0,0,0,0,0,0,0,0,0,0,0,0,0,0,0,0,0,0,0,0,0,0,0,0,0,0,0,0,0,0,0,0,0,0,0,0,0,0,0,0,0,0,0,0,0,0,0,0,0,0,0,0,0,0,0,0,0,0,0,0,0,0,0,0,0,0,0,0,0,0,0,0,0,0,0,0,0,0,0,0,0,0,0,0,0,0,0,0,0,0,0,0,0,0,0,0,0,0,0,0,0,0,0,0,0,0,0,0,0,0,0,0,0,0,0,0,0,0,0,0,0,0,0],"trees":[{"base_weights":[-1.7744858E-2,8.790776E-1,-8.5914326E-1,1.4143665E0,-1.3303398E0,-1.1676586E0,3.682567E-1,2.5796862E0,-1.7438814E-2,-1.3742388E0,-3.0229765E-3,-1.3766532E0,-8.810908E-2,1.4742615E0,-7.081728E-1,7.809489E-3,2.5998611E0,-7.370247E-1,2.4981797E-2,-3.9614746E-3,-1.4219452E0,-6.0219987E-4,-1.3895664E0,1.3188877E0,-1.1008888E0,2.2699053E0,-1.2655838E-2,-1.1561127E0,1.5951335E-2,2.620708E-2,7.809489E-3,-1.3922589E-2,2.2426685E-2,-1.4728412E-2,-7.120075E-3,-6.0883844E-3,-1.4011605E-2,1.9975692E-2,-1.08370455E-2,-1.3257719E-2,1.0307159E-2,1.0932383E-2,2.4474015E-2,-1.288843E-2,5.0204986E-4],"categories":[],"categories_nodes":[],"categories_segments":[],"categories_sizes":[],"default_left":[0,0,0,0,0,0,0,0,0,0,0,0,0,0,0,0,0,0,0,0,0,0,0,0,0,0,0,0,0,0,0,0,0,0,0,0,0,0,0,0,0,0,0,0,0],"id":0,"left_children":[1,3,5,7,9,11,13,15,17,19,-1,21,23,25,27,-1,29,31,-1,-1,33,-1,35,37,39,41,-1,43,-1,-1,-1,-1,-1,-1,-1,-1,-1,-1,-1,-1,-1,-1,-1,-1,-1],"loss_changes":[2.993407E2,2.2899486E2,7.7929596E1,2.5877515E2,1.2980118E0,3.683336E1,5.08919E1,1.0722656E0,1.2958913E2,1.1225739E0,0E0,2.2479248E0,4.083042E1,4.8598824E1,2.4433407E1,0E0,1.1429443E0,1.117665E2,0E0,0E0,1.821289E-1,0E0,3.7594604E-1,2.1766407E1,9.3302765E0,7.9416656E-1,0E0,3.0923767E0,0E0,0E0,0E0,0E0,0E0,0E0,0E0,0E0,0E0,0E0,0E0,0E0,0E0,0E0,0E0,0E0,0E0],"parents":[2147483647,0,0,1,1,2,2,3,3,4,4,5,5,6,6,7,7,8,8,9,9,11,11,12,12,13,13,14,14,16,16,17,17,20,20,22,22,23,23,24,24,25,25,27,27],"right_children":[2,4,6,8,10,12,14,16,18,20,-1,22,24,26,28,-1,30,32,-1,-1,34,-1,36,38,40,42,-1,44,-1,-1,-1,-1,-1,-1,-1,-1,-1,-1,-1,-1,-1,-1,-1,-1,-1],"split_conditions":[-3.6484566E-2,1.0762247E0,1E0,4.518487E-2,1.5414448E0,1E0,-6.1428014E-2,-1.6530607E0,1E0,-1.5174997E0,-3.0229765E-3,-1.7159437E0,1.4698674E-2,1.0492059E0,1E0,7.809489E-3,1.4698674E-2,1E0,2.4981797E-2,-3.9614746E-3,1.1951581E0,-6.0219987E-4,-1.6577778E0,1.019067E0,1.4460031E0,-1.1084838E0,-1.2655838E-2,1.3446627E0,1.5951335E-2,2.620708E-2,7.809489E-3,-1.3922589E-2,2.2426685E-2,-1.4728412E-2,-7.120075E-3,-6.0883844E-3,-1.4011605E-2,1.9975692E-2,-1.08370455E-2,-1.3257719E-2,1.0307159E-2,1.0932383E-2,2.4474015E-2,-1.288843E-2,5.0204986E-4],"split_indices":[23,22,24,26,8,25,26,22,24,26,0,21,26,22,25,0,26,25,0,0,8,0,19,22,20,7,0,18,0,0,0,0,0,0,0,0,0,0,0,0,0,0,0,0,0],"split_type":[0,0,0,0,0,0,0,0,0,0,0,0,0,0,0,0,0,0,0,0,0,0,0,0,0,0,0,0,0,0,0,0,0,0,0,0,0,0,0,0,0,0,0,0,0],"sum_hessian":[3.9469495E2,1.9103328E2,2.0366167E2,1.540665E2,3.6966774E1,1.6279158E2,4.08701E1,8.449548E1,6.9571014E1,3.5129917E1,1.8368584E0,1.3615714E2,2.6634447E1,1.9975836E1,2.0894264E1,1.3776438E0,8.311784E1,5.4646538E1,1.4924475E1,2.0664656E0,3.306345E1,1.3776438E0,1.3477948E2,1.1021151E1,1.56132965E1,1.56132965E1,4.362539E0,1.7909369E1,2.984895E0,8.17402E1,1.3776438E0,4.523264E1,9.413899E0,2.984895E1,3.214502E0,2.7552876E0,1.320242E2,8.725078E0,2.296073E0,1.446526E1,1.1480365E0,2.984895E0,1.2628402E1,1.6072512E1,1.8368584E0],"tree_param":{"num_deleted":"0","num_feature":"32","num_nodes":"45","size_leaf_vector":"1"}},{"base_weights":[-1.7469687E-2,8.543026E-1,-8.663918E-1,1.3799453E0,-1.3266172E0,-1.166352E0,3.2447436E-1,2.538204E0,-2.7955366E-2,-1.369765E0,-3.0050944E-3,-1.3728232E0,-1.11369915E-1,1.4257714E0,-7.3961455E-1,7.7542197E-3,2.5576208E0,-7.3652655E-1,2.4633229E-2,-3.937804E-3,-1.4165863E0,-5.98771E-4,-1.385975E0,1.3018707E0,-1.148353E0,2.2215455E0,-1.2590398E-2,-1.1975195E0,1.5778309E-2,2.5776757E-2,7.7542197E-3,-1.3888394E-2,2.2228481E-2,-1.4664592E-2,-7.076853E-3,-6.051505E-3,-1.3978217E-2,1.9696495E-2,-1.07850935E-2,-1.3805053E-2,1.0235996E-2,1.0825231E-2,2.3971962E-2,-1.2812096E-2,-1.9221059E-3],"categories":[],"categories_nodes":[],"categories_segments":[],"categories_sizes":[],"default_left":[0,0,0,0,0,0,0,0,0,0,0,0,0,0,0,0,0,0,0,0,0,0,0,0,0,0,0,0,0,0,0,0,0,0,0,0,0,0,0,0,0,0,0,0,0],"id":1,"left_children":[1,3,5,7,9,11,13,15,17,19,-1,21,23,25,27,-1,29,31,-1,-1,33,-1,35,37,39,41,-1,43,-1,-1,-1,-1,-1,-1,-1,-1,-1,-1,-1,-1,-1,-1,-1,-1,-1],"loss_changes":[2.9353537E2,2.2617046E2,7.215677E1,2.580136E2,1.2936249E0,3.4857407E1,4.9350327E1,9.8742676E-1,1.2959012E2,1.1183472E0,0E0,2.2366333E0,4.1643703E1,4.6795403E1,2.483057E1,0E0,1.0540771E0,1.1336392E2,0E0,0E0,1.8606567E-1,0E0,3.839569E-1,2.1299406E1,9.648407E0,6.555176E-1,0E0,1.3203468E0,0E0,0E0,0E0,0E0,0E0,0E0,0E0,0E0,0E0,0E0,0E0,0E0,0E0,0E0,0E0,0E0,0E0],"parents":[2147483647,0,0,1,1,2,2,3,3,4,4,5,5,6,6,7,7,8,8,9,9,11,11,12,12,13,13,14,14,16,16,17,17,20,20,22,22,23,23,24,24,25,25,27,27],"right_children":[2,4,6,8,10,12,14,16,18,20,-1,22,24,26,28,-1,30,32,-1,-1,34,-1,36,38,40,42,-1,44,-1,-1,-1,-1,-1,-1,-1,-1,-1,-1,-1,-1,-1,-1,-1,-1,-1],"split_conditions":[-1.9085713E-2,1.0762247E0,1E0,4.518487E-2,1.5414448E0,1E0,-6.1428014E-2,-1.6530607E0,1E0,-1.5174997E0,-3.0050944E-3,-1.7159437E0,1.4698674E-2,9.792746E-1,1E0,7.7542197E-3,1.4698674E-2,1E0,2.4633229E-2,-3.937804E-3,1.1951581E0,-5.98771E-4,-1.6577778E0,1.019067E0,1.4460031E0,-1.1084838E0,-1.2590398E-2,1.3446627E0,1.5778309E-2,2.5776757E-2,7.7542197E-3,-1.3888394E-2,2.2228481E-2,-1.4664592E-2,-7.076853E-3,-6.051505E-3,-1.3978217E-2,1.9696495E-2,-1.07850935E-2,-1.3805053E-2,1.0235996E-2,1.0825231E-2,2.3971962E-2,-1.2812096E-2,-1.9221059E-3],"split_indices":[23,22,24,26,8,25,26,22,24,26,0,21,26,22,25,0,26,25,0,0,8,0,19,22,20,7,0,18,0,0,0,0,0,0,0,0,0,0,0,0,0,0,0,0,0],"split_type":[0,0,0,0,0,0,0,0,0,0,0,0,0,0,0,0,0,0,0,0,0,0,0,0,0,0,0,0,0,0,0,0,0,0,0,0,0,0,0,0,0,0,0,0,0],"sum_hessian":[3.946335E2,1.9469334E2,1.9994017E2,1.571778E2,3.751554E1,1.5972786E2,4.021232E1,8.579375E1,7.1384056E1,3.568027E1,1.8352693E0,1.3333208E2,2.639578E1,1.9593643E1,2.0618675E1,1.3807006E0,8.441305E1,5.6125237E1,1.5258822E1,2.0641215E0,3.361615E1,1.3774067E0,1.3195467E2,1.10631075E1,1.5332673E1,1.52470045E1,4.3466387E0,1.7620327E1,2.998349E0,8.303234E1,1.3807006E0,4.642321E1,9.702024E0,3.0408215E1,3.2079349E0,2.7504773E0,1.292042E2,8.774192E0,2.2889156E0,1.418128E1,1.1513928E0,2.9941468E0,1.2252857E1,1.6012844E1,1.6074815E0],"tree_param":{"num_deleted":"0","num_feature":"32","num_nodes":"45","size_leaf_vector":"1"}},{"base_weights":[-1.721019E-2,8.441704E-1,-8.5997725E-1,1.3618071E0,-1.3189876E0,-1.1587892E0,3.2156783E-1,2.496507E0,-2.7276069E-2,-1.3620118E0,-2.9873224E-3,-1.3647333E0,-1.101528E-1,1.4076067E0,-7.338274E-1,7.6994873E-3,2.5153358E0,-7.307304E-1,2.4250219E-2,-3.9142845E-3,-1.4086995E0,-5.953622E-4,-1.377858E0,1.2852993E0,-1.1409076E0,2.1895201E0,-1.2525891E-2,-1.1902671E0,1.5608903E-2,2.5347803E-2,7.6994873E-3,-1.3808012E-2,2.1906579E-2,-1.4584018E-2,-7.0339707E-3,-6.014893E-3,-1.3896582E-2,1.9425582E-2,-1.0733724E-2,-1.372845E-2,1.0165604E-2,1.0719733E-2,2.3608524E-2,-1.2736872E-2,-1.9109076E-3],"categories":[],"categories_nodes":[],"categories_segments":[],"categories_sizes":[],"default_left":[0,0,0,0,0,0,0,0,0,0,0,0,0,0,0,0,0,0,0,0,0,0,0,0,0,0,0,0,0,0,0,0,0,0,0,0,0,0,0,0,0,0,0,0,0],"id":2,"left_children":[1,3,5,7,9,11,13,15,17,19,-1,21,23,25,27,-1,29,31,-1,-1,33,-1,35,37,39,41,-1,43,-1,-1,-1,-1,-1,-1,-1,-1,-1,-1,-1,-1,-1,-1,-1,-1,-1],"loss_changes":[2.87847E2,2.2137738E2,7.113028E1,2.5025467E2,1.2775497E0,3.444142E1,4.8298023E1,9.036865E-1,1.2658835E2,1.1043777E0,0E0,2.2099152E0,4.085089E1,4.5728306E1,2.4450844E1,0E0,9.6673584E-1,1.1126236E2,0E0,0E0,1.8279266E-1,0E0,3.7724304E-1,2.0847849E1,9.541227E0,5.96962E-1,0E0,1.3035412E0,0E0,0E0,0E0,0E0,0E0,0E0,0E0,0E0,0E0,0E0,0E0,0E0,0E0,0E0,0E0,0E0,0E0],"parents":[2147483647,0,0,1,1,2,2,3,3,4,4,5,5,6,6,7,7,8,8,9,9,11,11,12,12,13,13,14,14,16,16,17,17,20,20,22,22,23,23,24,24,25,25,27,27],"right_children":[2,4,6,8,10,12,14,16,18,20,-1,22,24,26,28,-1,30,32,-1,-1,34,-1,36,38,40,42,-1,44,-1,-1,-1,-1,-1,-1,-1,-1,-1,-1,-1,-1,-1,-1,-1,-1,-1],"split_conditions":[-1.9085713E-2,1.0762247E0,1E0,4.518487E-2,1.5414448E0,1E0,-6.1428014E-2,-1.6530607E0,1E0,-1.5174997E0,-2.9873224E-3,-1.7159437E0,1.4698674E-2,9.792746E-1,1E0,7.6994873E-3,1.4698674E-2,1E0,2.4250219E-2,-3.9142845E-3,1.1951581E0,-5.953622E-4,-1.6577778E0,1.019067E0,1.4460031E0,-1.1084838E0,-1.2525891E-2,1.3446627E0,1.5608903E-2,2.5347803E-2,7.6994873E-3,-1.3808012E-2,2.1906579E-2,-1.4584018E-2,-7.0339707E-3,-6.014893E-3,-1.3896582E-2,1.9425582E-2,-1.0733724E-2,-1.372845E-2,1.0165604E-2,1.0719733E-2,2.3608524E-2,-1.2736872E-2,-1.9109076E-3],"split_indices":[23,22,24,26,8,25,26,22,24,26,0,21,26,22,25,0,26,25,0,0,8,0,19,22,20,7,0,18,0,0,0,0,0,0,0,0,0,0,0,0,0,0,0,0,0],"split_type":[0,0,0,0,0,0,0,0,0,0,0,0,0,0,0,0,0,0,0,0,0,0,0,0,0,0,0,0,0,0,0,0,0,0,0,0,0,0,0,0,0,0,0,0,0],"sum_hessian":[3.945145E2,1.9510188E2,1.994126E2,1.5772842E2,3.7373447E1,1.5917628E2,4.0236317E1,8.637449E1,7.135394E1,3.5539764E1,1.8336833E0,1.3279494E2,2.6381348E1,1.9665794E1,2.057052E1,1.3837041E0,8.499079E1,5.599384E1,1.53601E1,2.061779E0,3.3477985E1,1.3771708E0,1.3141777E2,1.1102992E1,1.5278356E1,1.5335232E1,4.3305635E0,1.755915E1,3.0113692E0,8.3607086E1,1.3837041E0,4.62333E1,9.76054E0,3.027664E1,3.2013464E0,2.745658E0,1.286721E2,8.8213E0,2.2816932E0,1.4123675E1,1.15468E0,3.003174E0,1.2332058E1,1.5952553E1,1.6065985E0],"tree_param":{"num_deleted":"0","num_feature":"32","num_nodes":"45","size_leaf_vector":"1"}},{"base_weights":[-1.6957836E-2,8.1503874E-1,-8.7329304E-1,1.3120692E0,-1.2896507E0,-1.1673883E0,2.7768186E-1,2.3897257E0,-3.626038E-2,-1.330692E0,-2.9696578E-3,-1.3681394E0,-1.34028E-1,1.3443172E0,-7.2812724E-1,2.456478E0,1.89736E-1,-7.236072E-1,2.3881549E-2,-4.680263E-1,-1.3739271E0,-5.9197005E-4,-1.3816597E0,1.2970679E0,-1.0803258E0,2.134594E0,-1.24622965E-2,-1.1831124E0,1.5442998E-2,7.6452815E-3,2.474755E-2,-9.404699E-3,1.4519629E-2,-1.3542219E-2,2.0108525E-2,-8.266491E-3,1.0942834E-3,-1.4235482E-2,-5.222861E-3,-7.470008E-3,-1.3999953E-2,1.9467033E-2,-1.0332321E-2,-1.2999786E-2,7.559847E-3,9.58589E-3,2.313203E-2,-1.2662728E-2,-1.8997743E-3],"categories":[],"categories_nodes":[],"categories_segments":[],"categories_sizes":[],"default_left":[0,0,0,0,0,0,0,0,0,0,0,0,0,0,0,0,0,0,0,0,0,0,0,0,0,0,0,0,0,0,0,0,0,0,0,0,0,0,0,0,0,0,0,0,0,0,0,0,0],"id":3,"left_children":[1,3,5,7,9,11,13,15,17,19,-1,21,23,25,27,29,31,33,-1,35,37,-1,39,41,43,45,-1,47,-1,-1,-1,-1,-1,-1,-1,-1,-1,-1,-1,-1,-1,-1,-1,-1,-1,-1,-1,-1,-1],"loss_changes":[2.8237772E2,2.1199481E2,6.6433304E1,2.371146E2,1.1900711E0,3.2126144E1,4.4487587E1,1.2850403E1,1.24122635E2,7.3986816E-1,0E0,2.224228E0,3.7212566E1,4.3674217E1,2.4078438E1,8.269043E-1,6.7209625E0,1.02723434E2,0E0,7.709976E-1,7.267761E-1,0E0,4.5448303E-1,1.8633566E1,7.6234035E0,1.0843658E0,0E0,1.2871265E0,0E0,0E0,0E0,0E0,0E0,0E0,0E0,0E0,0E0,0E0,0E0,0E0,0E0,0E0,0E0,0E0,0E0,0E0,0E0,0E0,0E0],"parents":[2147483647,0,0,1,1,2,2,3,3,4,4,5,5,6,6,7,7,8,8,9,9,11,11,12,12,13,13,14,14,15,15,16,16,17,17,19,19,20,20,22,22,23,23,24,24,25,25,27,27],"right_children":[2,4,6,8,10,12,14,16,18,20,-1,22,24,26,28,30,32,34,-1,36,38,-1,40,42,44,46,-1,48,-1,-1,-1,-1,-1,-1,-1,-1,-1,-1,-1,-1,-1,-1,-1,-1,-1,-1,-1,-1,-1],"split_conditions":[2.2008264E-2,1.0762247E0,1E0,4.518487E-2,1.5414448E0,1E0,-6.1428014E-2,-1.9085713E-2,1E0,-1.5174997E0,-2.9696578E-3,-1.7159437E0,-8.941935E-2,9.792746E-1,1E0,-1.6530607E0,4.1488484E-1,1E0,2.3881549E-2,4.6933952E-1,-9.6338935E-2,-5.9197005E-4,-1.5911479E0,1.019067E0,1.4460031E0,-1.1084838E0,-1.24622965E-2,1.3446627E0,1.5442998E-2,7.6452815E-3,2.474755E-2,-9.404699E-3,1.4519629E-2,-1.3542219E-2,2.0108525E-2,-8.266491E-3,1.0942834E-3,-1.4235482E-2,-5.222861E-3,-7.470008E-3,-1.3999953E-2,1.9467033E-2,-1.0332321E-2,-1.2999786E-2,7.559847E-3,9.58589E-3,2.313203E-2,-1.2662728E-2,-1.8997743E-3],"split_indices":[23,22,24,26,8,25,26,23,24,26,0,21,26,22,25,22,18,25,0,9,23,0,26,22,20,7,0,18,0,0,0,0,0,0,0,0,0,0,0,0,0,0,0,0,0,0,0,0,0],"split_type":[0,0,0,0,0,0,0,0,0,0,0,0,0,0,0,0,0,0,0,0,0,0,0,0,0,0,0,0,0,0,0,0,0,0,0,0,0,0,0,0,0,0,0,0,0,0,0,0,0],"sum_hessian":[3.9433844E2,2.0003603E2,1.943024E2,1.6212596E2,3.7910065E1,1.5474734E2,3.955506E1,8.967809E1,7.244787E1,3.6077965E1,1.8321007E0,1.2930356E2,2.5443783E1,1.9033722E1,2.052134E1,8.692405E1,2.7540472E0,5.699167E1,1.5456194E1,2.2862248E0,3.379174E1,1.3769361E0,1.2792662E2,9.9801E0,1.5463682E1,1.4719402E1,4.31432E0,1.7497377E1,3.0239618E0,1.3866547E0,8.553739E1,1.5875009E0,1.1665461E0,4.67216E1,1.0270071E1,1.1441327E0,1.1420921E0,3.1296694E1,2.495046E0,4.7641196E0,1.23162506E2,7.9331326E0,2.0469668E0,1.4072456E1,1.3912257E0,2.7802882E0,1.1939115E1,1.589166E1,1.6057186E0],"tree_param":{"num_deleted":"0","num_feature":"32","num_nodes":"49","size_leaf_vector":"1"}},{"base_weights":[-1.6735286E-2,8.057216E-1,-8.6702585E-1,1.2955695E0,-1.2823138E0,-1.1600376E0,2.753306E-1,2.3526397E0,-3.5547826E-2,-1.3232429E0,-2.9521012E-3,-1.3602982E0,-1.3267942E-1,1.327921E0,-7.225118E-1,2.4178603E0,1.8919964E-1,-7.180474E-1,2.352643E-2,-4.6587238E-1,-1.3663071E0,-5.8859994E-4,-1.3737952E0,1.2810546E0,-1.0733386E0,2.1051645E0,-1.239959E-2,-1.1760532E0,1.528049E-2,2.436067E-2,7.4719987E-3,-9.363636E-3,1.4412533E-2,-1.3464723E-2,1.9832773E-2,-8.233057E-3,1.0882615E-3,-1.415784E-2,-5.1915175E-3,-7.422339E-3,-1.3920729E-2,1.9209266E-2,-1.0284594E-2,-1.2926622E-2,7.506979E-3,9.4973035E-3,2.2797555E-2,-1.2589638E-2,-1.8887053E-3],"categories":[],"categories_nodes":[],"categories_segments":[],"categories_sizes":[],"default_left":[0,0,0,0,0,0,0,0,0,0,0,0,0,0,0,0,0,0,0,0,0,0,0,0,0,0,0,0,0,0,0,0,0,0,0,0,0,0,0,0,0,0,0,0,0,0,0,0,0],"id":4,"left_children":[1,3,5,7,9,11,13,15,17,19,-1,21,23,25,27,29,31,33,-1,35,37,-1,39,41,43,45,-1,47,-1,-1,-1,-1,-1,-1,-1,-1,-1,-1,-1,-1,-1,-1,-1,-1,-1,-1,-1,-1,-1],"loss_changes":[2.7701147E2,2.0761813E2,6.550711E1,2.3027777E2,1.1755219E0,3.1747452E1,4.356459E1,1.2410919E1,1.2132186E2,7.2717285E-1,0E0,2.1985168E0,3.6514153E1,4.271296E1,2.3713177E1,8.7005615E-1,6.6396346E0,1.00874916E2,0E0,7.6414883E-1,7.173767E-1,0E0,4.487915E-1,1.8250507E1,7.5355167E0,1.0211258E0,0E0,1.2710876E0,0E0,0E0,0E0,0E0,0E0,0E0,0E0,0E0,0E0,0E0,0E0,0E0,0E0,0E0,0E0,0E0,0E0,0E0,0E0,0E0,0E0],"parents":[2147483647,0,0,1,1,2,2,3,3,4,4,5,5,6,6,7,7,8,8,9,9,11,11,12,12,13,13,14,14,15,15,16,16,17,17,19,19,20,20,22,22,23,23,24,24,25,25,27,27],"right_children":[2,4,6,8,10,12,14,16,18,20,-1,22,24,26,28,30,32,34,-1,36,38,-1,40,42,44,46,-1,48,-1,-1,-1,-1,-1,-1,-1,-1,-1,-1,-1,-1,-1,-1,-1,-1,-1,-1,-1,-1,-1],"split_conditions":[2.2008264E-2,1.0762247E0,1E0,4.518487E-2,1.5414448E0,1E0,-6.1428014E-2,-1.9085713E-2,1E0,-1.5174997E0,-2.9521012E-3,-1.7159437E0,-8.941935E-2,9.792746E-1,1E0,1.4698674E-2,4.1488484E-1,1E0,2.352643E-2,4.6933952E-1,-9.6338935E-2,-5.8859994E-4,-1.5911479E0,1.019067E0,1.4460031E0,-1.1084838E0,-1.239959E-2,1.3446627E0,1.528049E-2,2.436067E-2,7.4719987E-3,-9.363636E-3,1.4412533E-2,-1.3464723E-2,1.9832773E-2,-8.233057E-3,1.0882615E-3,-1.415784E-2,-5.1915175E-3,-7.422339E-3,-1.3920729E-2,1.9209266E-2,-1.0284594E-2,-1.2926622E-2,7.506979E-3,9.4973035E-3,2.2797555E-2,-1.2589638E-2,-1.8887053E-3],"split_indices":[23,22,24,26,8,25,26,23,24,26,0,21,26,22,25,26,18,25,0,9,23,0,26,22,20,7,0,18,0,0,0,0,0,0,0,0,0,0,0,0,0,0,0,0,0,0,0,0,0],"split_type":[0,0,0,0,0,0,0,0,0,0,0,0,0,0,0,0,0,0,0,0,0,0,0,0,0,0,0,0,0,0,0,0,0,0,0,0,0,0,0,0,0,0,0,0,0,0,0,0,0],"sum_hessian":[3.941124E2,2.0036176E2,1.9375064E2,1.6259654E2,3.7765224E1,1.5418663E2,3.9564E1,9.01996E1,7.239694E1,3.5934704E1,1.8305211E0,1.2876309E2,2.542355E1,1.9092827E1,2.0471172E1,8.74458E1,2.7537973E0,5.684971E1,1.5547232E1,2.283825E0,3.365088E1,1.3767025E0,1.2738638E2,1.0012983E1,1.5410567E1,1.47949095E1,4.297916E0,1.7435038E1,3.036134E0,8.604988E1,1.3959221E0,1.5829262E0,1.1708713E0,4.6527336E1,1.0322373E1,1.1413659E0,1.1424589E0,3.1159811E1,2.4910662E0,4.753246E0,1.2263314E2,7.9724092E0,2.0405736E0,1.4016525E1,1.3940417E0,2.7874508E0,1.2007459E1,1.5830197E1,1.6048415E0],"tree_param":{"num_deleted":"0","num_feature":"32","num_nodes":"49","size_leaf_vector":"1"}},{"base_weights":[-1.651932E-2,7.966711E-1,-8.6086935E-1,1.2795901E0,-1.2750895E0,-1.1528087E0,2.7302662E-1,2.316953E0,-3.485224E-2,-1.3159124E0,-2.9346528E-3,-1.352584E0,-1.3136134E-1,1.3119838E0,-7.169788E-1,2.3807204E0,1.8865946E-1,-7.1258956E-1,2.3184134E-2,-4.6373472E-1,-1.3588127E0,-5.852475E-4,-1.3660595E0,1.2654439E0,-1.0664471E0,2.0766735E0,-1.2337754E-2,-1.1690868E0,1.5121269E0,2.3984266E-2,7.419962E-3,-9.322954E-3,1.4307016E-2,-1.3388443E-2,1.9565264E-2,-8.221024E-3,1.1109031E-3,-1.4081549E-2,-5.1603857E-3,-7.375058E-3,-1.3842832E-2,1.8958833E-2,-1.023737E-2,-1.2854533E-2,7.4546114E-3,9.409935E-3,2.2474634E-2,-1.2517571E-2,-1.8777022E-3,5.1717106E-3,1.7378801E-2],"categories":[],"categories_nodes":[],"categories_segments":[],"categories_sizes":[],"default_left":[0,0,0,0,0,0,0,0,0,0,0,0,0,0,0,0,0,0,0,0,0,0,0,0,0,0,0,0,0,0,0,0,0,0,0,0,0,0,0,0,0,0,0,0,0,0,0,0,0,0,0],"id":5,"left_children":[1,3,5,7,9,11,13,15,17,19,-1,21,23,25,27,29,31,33,-1,35,37,-1,39,41,43,45,-1,47,49,-1,-1,-1,-1,-1,-1,-1,-1,-1,-1,-1,-1,-1,-1,-1,-1,-1,-1,-1,-1,-1,-1],"loss_changes":[2.7178525E2,2.0337819E2,6.459599E1,2.2374219E2,1.1613922E0,3.1373672E1,4.26679E1,1.1994843E1,1.18616646E2,7.148628E-1,0E0,2.1733398E0,3.58327E1,4.1784634E1,2.335486E1,8.009949E-1,6.5595784E0,9.907351E1,0E0,7.672926E-1,7.0835495E-1,0E0,4.4343567E-1,1.7879612E1,7.4489746E0,9.6269226E-1,0E0,1.2554111E0,1.0435104E-2,0E0,0E0,0E0,0E0,0E0,0E0,0E0,0E0,0E0,0E0,0E0,0E0,0E0,0E0,0E0,0E0,0E0,0E0,0E0,0E0,0E0,0E0],"parents":[2147483647,0,0,1,1,2,2,3,3,4,4,5,5,6,6,7,7,8,8,9,9,11,11,12,12,13,13,14,14,15,15,16,16,17,17,19,19,20,20,22,22,23,23,24,24,25,25,27,27,28,28],"right_children":[2,4,6,8,10,12,14,16,18,20,-1,22,24,26,28,30,32,34,-1,36,38,-1,40,42,44,46,-1,48,50,-1,-1,-1,-1,-1,-1,-1,-1,-1,-1,-1,-1,-1,-1,-1,-1,-1,-1,-1,-1,-1,-1],"split_conditions":[2.2008264E-2,1.0762247E0,1E0,4.518487E-2,1.5414448E0,1E0,-6.1428014E-2,-1.9085713E-2,1E0,-1.5174997E0,-2.9346528E-3,-1.7159437E0,-8.941935E-2,9.792746E-1,1E0,1.4698674E-2,4.1488484E-1,1E0,2.3184134E-2,-3.0088583E-1,-9.6338935E-2,-5.852475E-4,-1.5911479E0,1.019067E0,1.4460031E0,-1.1084838E0,-1.2337754E-2,1.3446627E0,3.02014E-1,2.3984266E-2,7.419962E-3,-9.322954E-3,1.4307016E-2,-1.3388443E-2,1.9565264E-2,-8.221024E-3,1.1109031E-3,-1.4081549E-2,-5.1603857E-3,-7.375058E-3,-1.3842832E-2,1.8958833E-2,-1.023737E-2,-1.2854533E-2,7.4546114E-3,9.409935E-3,2.2474634E-2,-1.2517571E-2,-1.8777022E-3,5.1717106E-3,1.7378801E-2],"split_indices":[23,22,24,26,8,25,26,23,24,26,0,21,26,22,25,26,18,25,0,7,23,0,26,22,20,7,0,18,6,0,0,0,0,0,0,0,0,0,0,0,0,0,0,0,0,0,0,0,0,0,0],"split_type":[0,0,0,0,0,0,0,0,0,0,0,0,0,0,0,0,0,0,0,0,0,0,0,0,0,0,0,0,0,0,0,0,0,0,0,0,0,0,0,0,0,0,0,0,0,0,0,0,0,0,0],"sum_hessian":[3.938334E2,2.0064725E2,1.9318616E2,1.6302835E2,3.761889E1,1.5361807E2,3.9568077E1,9.069156E1,7.23368E1,3.5789944E1,1.828945E0,1.2821712E2,2.5400969E1,1.9148027E1,2.0420048E1,8.793817E1,2.7533875E0,5.670347E1,1.563333E1,2.2814047E0,3.350854E1,1.3764701E0,1.2684064E2,1.0044092E1,1.5356877E1,1.486667E1,4.2813573E0,1.7372156E1,3.047892E0,8.653951E1,1.398654E0,1.5783218E0,1.1750656E0,4.633118E1,1.0372292E1,1.1403124E0,1.1410923E0,3.1021454E1,2.487086E0,4.742347E0,1.220983E2,8.009959E0,2.0341322E0,1.3960071E1,1.396807E0,2.7944474E0,1.2072222E1,1.5768188E1,1.6039675E0,1.1722661E0,1.8756258E0],"tree_param":{"num_deleted":"0","num_feature":"32","num_nodes":"51","size_leaf_vector":"1"}},{"base_weights":[-1.6290594E-2,7.878769E-1,-8.5478973E-1,1.2641084E0,-1.2679735E0,-1.1456978E0,2.7096394E-1,2.2825933E0,-3.4172922E-2,-1.308696E0,-2.9173105E-3,-1.3449934E0,-1.3007298E-1,1.296486E0,-7.112388E-1,2.3449812E0,1.8811572E-1,-7.072306E-1,2.2853984E-2,-4.616077E-1,-1.3514403E0,-5.819141E-4,-1.3584489E0,1.2502197E0,-1.0596495E0,2.0490763E0,-1.2276765E-2,-1.162211E0,1.4990336E0,7.255274E-3,2.362633E-2,-9.282647E-3,1.4203046E-2,-1.3313348E-2,1.9305617E-2,-8.19544E-3,1.115033E-3,-1.4006573E-2,-5.129464E-3,-5.737096E-3,-1.3708994E-2,1.8715411E-2,-1.0190636E-2,-1.278349E-2,7.40274E-3,9.323758E-3,2.2162683E-2,-1.2446501E-2,-1.8667633E-3,1.7259667E-2,5.0956868E-3],"categories":[],"categories_nodes":[],"categories_segments":[],"categories_sizes":[],"default_left":[0,0,0,0,0,0,0,0,0,0,0,0,0,0,0,0,0,0,0,0,0,0,0,0,0,0,0,0,0,0,0,0,0,0,0,0,0,0,0,0,0,0,0,0,0,0,0,0,0,0,0],"id":6,"left_children":[1,3,5,7,9,11,13,15,17,19,-1,21,23,25,27,29,31,33,-1,35,37,-1,39,41,43,45,-1,47,49,-1,-1,-1,-1,-1,-1,-1,-1,-1,-1,-1,-1,-1,-1,-1,-1,-1,-1,-1,-1,-1,-1],"loss_changes":[2.6668304E2,1.9926878E2,6.371515E1,2.1749026E2,1.1476402E0,3.1004639E1,4.178264E1,1.1600708E1,1.1600224E2,7.0296097E-1,0E0,2.148758E0,3.5167656E1,4.0887638E1,2.303938E1,8.414917E-1,6.480765E0,9.731745E1,0E0,7.640245E-1,6.997185E-1,0E0,4.5715332E-1,1.7520302E1,7.363743E0,9.086838E-1,0E0,1.2400856E0,3.156185E-2,0E0,0E0,0E0,0E0,0E0,0E0,0E0,0E0,0E0,0E0,0E0,0E0,0E0,0E0,0E0,0E0,0E0,0E0,0E0,0E0,0E0,0E0],"parents":[2147483647,0,0,1,1,2,2,3,3,4,4,5,5,6,6,7,7,8,8,9,9,11,11,12,12,13,13,14,14,15,15,16,16,17,17,19,19,20,20,22,22,23,23,24,24,25,25,27,27,28,28],"right_children":[2,4,6,8,10,12,14,16,18,20,-1,22,24,26,28,30,32,34,-1,36,38,-1,40,42,44,46,-1,48,50,-1,-1,-1,-1,-1,-1,-1,-1,-1,-1,-1,-1,-1,-1,-1,-1,-1,-1,-1,-1,-1,-1],"split_conditions":[2.2008264E-2,1.0762247E0,1E0,4.518487E-2,1.5414448E0,1E0,-6.1428014E-2,-1.9085713E-2,1E0,-1.5174997E0,-2.9173105E-3,-1.7159437E0,-8.941935E-2,9.792746E-1,1E0,-1.6530607E0,4.1488484E-1,1E0,2.2853984E-2,-4.1853547E-1,-9.6338935E-2,-5.819141E-4,-1.6577778E0,1.019067E0,1.4460031E0,-1.1084838E0,-1.2276765E-2,1.3446627E0,8.107854E-3,7.255274E-3,2.362633E-2,-9.282647E-3,1.4203046E-2,-1.3313348E-2,1.9305617E-2,-8.19544E-3,1.115033E-3,-1.4006573E-2,-5.129464E-3,-5.737096E-3,-1.3708994E-2,1.8715411E-2,-1.0190636E-2,-1.278349E-2,7.40274E-3,9.323758E-3,2.2162683E-2,-1.2446501E-2,-1.8667633E-3,1.7259667E-2,5.0956868E-3],"split_indices":[23,22,24,26,8,25,26,23,24,26,0,21,26,22,25,22,18,25,0,21,23,0,19,22,20,7,0,18,22,0,0,0,0,0,0,0,0,0,0,0,0,0,0,0,0,0,0,0,0,0,0],"split_type":[0,0,0,0,0,0,0,0,0,0,0,0,0,0,0,0,0,0,0,0,0,0,0,0,0,0,0,0,0,0,0,0,0,0,0,0,0,0,0,0,0,0,0,0,0,0,0,0,0,0,0],"sum_hessian":[3.9350104E2,2.0089342E2,1.9260762E2,1.6342226E2,3.7471153E1,1.5304204E2,3.9565594E1,9.115454E1,7.2267715E1,3.5643784E1,1.8273727E0,1.27665924E2,2.537611E1,1.919942E1,2.0366173E1,8.8401726E1,2.752819E0,5.6553104E1,1.571461E1,2.2789881E0,3.3364796E1,1.3762388E0,1.2628968E2,1.0073467E1,1.5302642E1,1.4934769E1,4.2646523E0,1.7308764E1,3.0574102E0,1.4071368E0,8.699459E1,1.5736889E0,1.1791303E0,4.613322E1,1.041988E1,1.1381592E0,1.140829E0,3.088169E1,2.4831061E0,2.7076788E0,1.23582E2,8.045823E0,2.0276446E0,1.390312E1,1.3995221E0,2.8012815E0,1.2133487E1,1.5705667E1,1.6030966E0,1.8815372E0,1.1758732E0],"tree_param":{"num_deleted":"0","num_feature":"32","num_nodes":"51","size_leaf_vector":"1"}},{"base_weights":[-1.6064057E-2,7.793267E-1,-8.4880775E-1,1.249099E0,-1.2609637E0,-1.1386948E0,2.689416E-1,2.2494812E0,-3.3509035E-2,-1.3015915E0,-2.9000728E-3,-1.337515E0,-1.2881294E-1,1.281409E0,-7.0557624E-1,2.3105583E0,1.875686E-1,-7.019674E-1,2.253534E-2,-4.594947E-1,-1.3441865E0,-5.786004E-4,-1.3509524E0,1.2353674E0,-1.0529428E0,2.02233E0,-1.2216604E-2,-1.1554235E0,1.4861511E0,2.327758E-2,7.2051263E-3,-9.242709E-3,1.4100595E-2,-1.3239403E-2,1.905348E-2,-8.178961E-3,1.1314672E-3,-1.39328735E-2,-5.0987503E-3,-7.2436347E-3,-1.3692095E-2,1.8478703E-2,-1.0144385E-2,-1.2713464E-2,7.3513566E-3,9.238747E-3,2.1861147E-2,-1.2376403E-2,-1.8558896E-3,5.0352914E-3,1.7128382E-2],"categories":[],"categories_nodes":[],"categories_segments":[],"categories_sizes":[],"default_left":[0,0,0,0,0,0,0,0,0,0,0,0,0,0,0,0,0,0,0,0,0,0,0,0,0,0,0,0,0,0,0,0,0,0,0,0,0,0,0,0,0,0,0,0,0,0,0,0,0,0,0],"id":7,"left_children":[1,3,5,7,9,11,13,15,17,19,-1,21,23,25,27,29,31,33,-1,35,37,-1,39,41,43,45,-1,47,49,-1,-1,-1,-1,-1,-1,-1,-1,-1,-1,-1,-1,-1,-1,-1,-1,-1,-1,-1,-1,-1,-1],"loss_changes":[2.6170847E2,1.952837E2,6.284781E1,2.1150366E2,1.1342583E0,3.0639816E1,4.0922016E1,1.1226929E1,1.1347418E2,6.914406E-1,0E0,2.12471E0,3.4518463E1,4.0020393E1,2.2729082E1,7.796936E-1,6.403176E0,9.560495E1,0E0,7.650091E-1,6.914215E-1,0E0,4.579773E-1,1.7172071E1,7.279787E0,8.5874176E-1,0E0,1.2250957E0,4.337406E-2,0E0,0E0,0E0,0E0,0E0,0E0,0E0,0E0,0E0,0E0,0E0,0E0,0E0,0E0,0E0,0E0,0E0,0E0,0E0,0E0,0E0,0E0],"parents":[2147483647,0,0,1,1,2,2,3,3,4,4,5,5,6,6,7,7,8,8,9,9,11,11,12,12,13,13,14,14,15,15,16,16,17,17,19,19,20,20,22,22,23,23,24,24,25,25,27,27,28,28],"right_children":[2,4,6,8,10,12,14,16,18,20,-1,22,24,26,28,30,32,34,-1,36,38,-1,40,42,44,46,-1,48,50,-1,-1,-1,-1,-1,-1,-1,-1,-1,-1,-1,-1,-1,-1,-1,-1,-1,-1,-1,-1,-1,-1],"split_conditions":[2.2008264E-2,1.0762247E0,1E0,4.518487E-2,1.5414448E0,1E0,-6.1428014E-2,-1.9085713E-2,1E0,-1.5174997E0,-2.9000728E-3,-1.7159437E0,-8.941935E-2,9.792746E-1,1E0,1.4698674E-2,4.1488484E-1,1E0,2.253534E-2,4.6933952E-1,-9.6338935E-2,-5.786004E-4,-1.5911479E0,1.019067E0,1.4460031E0,-1.1084838E0,-1.2216604E-2,1.3446627E0,1.0290552E0,2.327758E-2,7.2051263E-3,-9.242709E-3,1.4100595E-2,-1.3239403E-2,1.905348E-2,-8.178961E-3,1.1314672E-3,-1.39328735E-2,-5.0987503E-3,-7.2436347E-3,-1.3692095E-2,1.8478703E-2,-1.0144385E-2,-1.2713464E-2,7.3513566E-3,9.238747E-3,2.1861147E-2,-1.2376403E-2,-1.8558896E-3,5.0352914E-3,1.7128382E-2],"split_indices":[23,22,24,26,8,25,26,23,24,26,0,21,26,22,25,26,18,25,0,9,23,0,26,22,20,7,0,18,26,0,0,0,0,0,0,0,0,0,0,0,0,0,0,0,0,0,0,0,0,0,0],"split_type":[0,0,0,0,0,0,0,0,0,0,0,0,0,0,0,0,0,0,0,0,0,0,0,0,0,0,0,0,0,0,0,0,0,0,0,0,0,0,0,0,0,0,0,0,0,0,0,0,0,0,0],"sum_hessian":[3.9311847E2,2.0110153E2,1.9201692E2,1.6377946E2,3.732208E1,1.524583E2,3.9558628E1,9.1589516E1,7.218994E1,3.5496273E1,1.8258034E0,1.2710926E2,2.5349033E1,1.9247097E1,2.0311533E1,8.8837425E1,2.752095E0,5.6398746E1,1.5791193E1,2.2765603E0,3.3219715E1,1.3760087E0,1.2573325E2,1.0101148E1,1.5247885E1,1.4999292E1,4.2478056E0,1.7244883E1,3.06665E0,8.742776E1,1.409669E0,1.5690286E0,1.1830662E0,4.593355E1,1.0465192E1,1.1367875E0,1.1397728E0,3.0740587E1,2.4791267E0,4.7114425E0,1.2102181E2,8.080036E0,2.0211117E0,1.3845697E1,1.4021875E0,2.8079548E0,1.2191338E1,1.5642654E1,1.6022284E0,1.1786785E0,1.8879714E0],"tree_param":{"num_deleted":"0","num_feature":"32","num_nodes":"51","size_leaf_vector":"1"}},{"base_weights":[-1.5847428E-2,7.710113E-1,-8.429326E-1,1.2345424E0,-1.2540566E0,-1.1318096E0,2.6695862E-1,2.217556E0,-3.286044E-2,-1.2945955E0,-2.8829398E-3,-1.3301601E0,-1.275806E-1,1.2667356E0,-6.999893E-1,2.2773862E0,1.870185E-1,-6.967973E-1,2.2227611E-2,-4.5739335E-1,-1.3370484E0,-5.7530537E-4,-1.3435808E0,1.2208723E0,-1.0463247E0,1.996396E0,-1.2157253E-2,-1.1487219E0,1.4734807E0,7.0456234E-3,2.2945542E-2,-9.203131E-3,1.39996335E-2,-1.3166581E-2,1.8808518E-2,-8.15226E-3,1.1333383E-3,-1.3860418E-2,-5.068243E-3,-5.6240587E-3,-1.3560535E-2,1.824842E-2,-1.009861E-2,-1.2644432E-2,7.3004547E-3,9.1548795E-3,2.1569515E-2,-1.2307253E-2,-1.8450799E-3,4.9756053E-3,1.6999334E-2],"categories":[],"categories_nodes":[],"categories_segments":[],"categories_sizes":[],"default_left":[0,0,0,0,0,0,0,0,0,0,0,0,0,0,0,0,0,0,0,0,0,0,0,0,0,0,0,0,0,0,0,0,0,0,0,0,0,0,0,0,0,0,0,0,0,0,0,0,0,0,0],"id":8,"left_children":[1,3,5,7,9,11,13,15,17,19,-1,21,23,25,27,29,31,33,-1,35,37,-1,39,41,43,45,-1,47,49,-1,-1,-1,-1,-1,-1,-1,-1,-1,-1,-1,-1,-1,-1,-1,-1,-1,-1,-1,-1,-1,-1],"loss_changes":[2.568618E2,1.9141772E2,6.1994827E1,2.0576762E2,1.1212349E0,3.0280014E1,4.0085068E1,1.0872131E1,1.1102827E2,6.802902E-1,0E0,2.1011963E0,3.3884583E1,3.91815E1,2.2423876E1,8.201599E-1,6.326785E0,9.393446E1,0E0,7.6105183E-1,6.834793E-1,0E0,4.6669006E-1,1.683442E1,7.1970806E0,8.1253815E-1,0E0,1.2104359E0,5.4885864E-2,0E0,0E0,0E0,0E0,0E0,0E0,0E0,0E0,0E0,0E0,0E0,0E0,0E0,0E0,0E0,0E0,0E0,0E0,0E0,0E0,0E0,0E0],"parents":[2147483647,0,0,1,1,2,2,3,3,4,4,5,5,6,6,7,7,8,8,9,9,11,11,12,12,13,13,14,14,15,15,16,16,17,17,19,19,20,20,22,22,23,23,24,24,25,25,27,27,28,28],"right_children":[2,4,6,8,10,12,14,16,18,20,-1,22,24,26,28,30,32,34,-1,36,38,-1,40,42,44,46,-1,48,50,-1,-1,-1,-1,-1,-1,-1,-1,-1,-1,-1,-1,-1,-1,-1,-1,-1,-1,-1,-1,-1,-1],"split_conditions":[2.2008264E-2,1.0762247E0,1E0,4.518487E-2,1.5414448E0,1E0,-6.1428014E-2,-1.9085713E-2,1E0,-1.5174997E0,-2.8829398E-3,-1.7159437E0,-8.941935E-2,9.792746E-1,1E0,-1.6530607E0,4.1488484E-1,1E0,2.2227611E-2,-4.1853547E-1,-9.6338935E-2,-5.7530537E-4,-1.6577778E0,1.019067E0,1.4460031E0,-1.1084838E0,-1.2157253E-2,1.3446627E0,-3.1105453E-1,7.0456234E-3,2.2945542E-2,-9.203131E-3,1.39996335E-2,-1.3166581E-2,1.8808518E-2,-8.15226E-3,1.1333383E-3,-1.3860418E-2,-5.068243E-3,-5.6240587E-3,-1.3560535E-2,1.824842E-2,-1.009861E-2,-1.2644432E-2,7.3004547E-3,9.1548795E-3,2.1569515E-2,-1.2307253E-2,-1.8450799E-3,4.9756053E-3,1.6999334E-2],"split_indices":[23,22,24,26,8,25,26,23,24,26,0,21,26,22,25,22,18,25,0,21,23,0,19,22,20,7,0,18,7,0,0,0,0,0,0,0,0,0,0,0,0,0,0,0,0,0,0,0,0,0,0],"split_type":[0,0,0,0,0,0,0,0,0,0,0,0,0,0,0,0,0,0,0,0,0,0,0,0,0,0,0,0,0,0,0,0,0,0,0,0,0,0,0,0,0,0,0,0,0,0,0,0,0,0,0],"sum_hessian":[3.9268808E2,2.012725E2,1.9141556E2,1.6410078E2,3.717173E1,1.5186827E2,3.9547283E1,9.199704E1,7.2103745E1,3.5347492E1,1.8242381E0,1.2654848E2,2.53198E1,1.9291145E1,2.0256138E1,8.924582E1,2.751217E0,5.6240555E1,1.586319E1,2.274131E0,3.3073364E1,1.3757797E0,1.2517269E2,1.012717E1,1.5192629E1,1.5060322E1,4.2308245E0,1.718054E1,3.0755978E0,1.4175569E0,8.782826E1,1.564342E0,1.1868747E0,4.5732277E1,1.0508279E1,1.1344551E0,1.139676E0,3.0598215E1,2.4751484E0,2.6915321E0,1.2248116E2,8.112633E0,2.0145366E0,1.3787826E1,1.4048038E0,2.8144693E0,1.2245852E1,1.5579176E1,1.6013633E0,1.1814063E0,1.8941915E0],"tree_param":{"num_deleted":"0","num_feature":"32","num_nodes":"51","size_leaf_vector":"1"}},{"base_weights":[-1.5632538E-2,7.629199E-1,-8.3714926E-1,1.2204161E0,-1.2472501E0,-1.1250262E0,2.6501343E-1,2.1867483E0,-3.222612E-2,-1.2877054E0,-2.8659117E-3,-1.3229113E0,-1.2637496E-1,1.2524486E0,-6.9447654E-1,2.2453914E0,1.8646544E-1,-6.917174E-1,2.1930253E-2,-4.5530617E-1,-1.3300226E0,-5.72029E-4,-1.336317E0,1.2067213E0,-1.0397935E0,1.9712361E0,-1.2098693E-2,-1.1421041E0,1.4610173E0,6.9975415E-3,2.2621486E-2,-9.163911E-3,1.3900129E-2,-1.3094849E-2,1.8570421E-2,-8.1360275E-3,1.1495727E-3,-1.378917E-2,-5.0379396E-3,-7.1145636E-3,-1.3546177E-2,1.80243E-2,-1.0053298E-2,-1.2576365E-2,7.2500273E-3,9.072129E-3,2.12873E-2,-1.2239024E-2,-1.8343324E-3,4.9164942E-3,1.6872523E-2],"categories":[],"categories_nodes":[],"categories_segments":[],"categories_sizes":[],"default_left":[0,0,0,0,0,0,0,0,0,0,0,0,0,0,0,0,0,0,0,0,0,0,0,0,0,0,0,0,0,0,0,0,0,0,0,0,0,0,0,0,0,0,0,0,0,0,0,0,0,0,0],"id":9,"left_children":[1,3,5,7,9,11,13,15,17,19,-1,21,23,25,27,29,31,33,-1,35,37,-1,39,41,43,45,-1,47,49,-1,-1,-1,-1,-1,-1,-1,-1,-1,-1,-1,-1,-1,-1,-1,-1,-1,-1,-1,-1,-1,-1],"loss_changes":[2.5213365E2,1.8766525E2,6.115471E1,2.0026674E2,1.1085625E0,2.9924393E1,3.927089E1,1.053479E1,1.0866066E2,6.69487E-1,0E0,2.0781403E0,3.326555E1,3.8369602E1,2.2123653E1,7.6434326E-1,6.25157E0,9.230444E1,0E0,7.620123E-1,6.758461E-1,0E0,4.7262573E-1,1.650689E1,7.1156006E0,7.6978683E-1,0E0,1.1960907E0,6.616306E-2,0E0,0E0,0E0,0E0,0E0,0E0,0E0,0E0,0E0,0E0,0E0,0E0,0E0,0E0,0E0,0E0,0E0,0E0,0E0,0E0,0E0,0E0],"parents":[2147483647,0,0,1,1,2,2,3,3,4,4,5,5,6,6,7,7,8,8,9,9,11,11,12,12,13,13,14,14,15,15,16,16,17,17,19,19,20,20,22,22,23,23,24,24,25,25,27,27,28,28],"right_children":[2,4,6,8,10,12,14,16,18,20,-1,22,24,26,28,30,32,34,-1,36,38,-1,40,42,44,46,-1,48,50,-1,-1,-1,-1,-1,-1,-1,-1,-1,-1,-1,-1,-1,-1,-1,-1,-1,-1,-1,-1,-1,-1],"split_conditions":[2.2008264E-2,1.0762247E0,1E0,4.518487E-2,1.5414448E0,1E0,-6.1428014E-2,-1.9085713E-2,1E0,-1.5174997E0,-2.8659117E-3,-1.7159437E0,-8.941935E-2,9.792746E-1,1E0,-1.6530607E0,4.1488484E-1,1E0,2.1930253E-2,4.6933952E-1,-9.6338935E-2,-5.72029E-4,-1.5911479E0,1.019067E0,1.4460031E0,-1.1084838E0,-1.2098693E-2,1.3446627E0,-3.2374772E-1,6.9975415E-3,2.2621486E-2,-9.163911E-3,1.3900129E-2,-1.3094849E-2,1.8570421E-2,-8.1360275E-3,1.1495727E-3,-1.378917E-2,-5.0379396E-3,-7.1145636E-3,-1.3546177E-2,1.80243E-2,-1.0053298E-2,-1.2576365E-2,7.2500273E-3,9.072129E-3,2.12873E-2,-1.2239024E-2,-1.8343324E-3,4.9164942E-3,1.6872523E-2],"split_indices":[23,22,24,26,8,25,26,23,24,26,0,21,26,22,25,22,18,25,0,9,23,0,26,22,20,7,0,18,19,0,0,0,0,0,0,0,0,0,0,0,0,0,0,0,0,0,0,0,0,0,0],"split_type":[0,0,0,0,0,0,0,0,0,0,0,0,0,0,0,0,0,0,0,0,0,0,0,0,0,0,0,0,0,0,0,0,0,0,0,0,0,0,0,0,0,0,0,0,0,0,0,0,0,0,0],"sum_hessian":[3.9221042E2,2.0140756E2,1.9080286E2,1.6438739E2,3.7020172E1,1.512712E2,3.9531677E1,9.237801E1,7.200937E1,3.5197495E1,1.8226761E0,1.2598272E2,2.528847E1,1.9331657E1,2.020002E1,8.962783E1,2.7501874E0,5.607865E1,1.5930715E1,2.2716897E0,3.2925804E1,1.3755518E0,1.2460717E2,1.015157E1,1.5136899E1,1.5117942E1,4.213715E0,1.711576E1,3.0842576E0,1.4198837E0,8.820795E1,1.5596304E0,1.1905571E0,4.552946E1,1.05491905E1,1.1330688E0,1.138621E0,3.0454634E1,2.4711716E0,4.6802635E0,1.199269E2,8.14365E0,2.0079203E0,1.3729527E1,1.4073715E0,2.8208292E0,1.2297113E1,1.5515261E1,1.6005011E0,1.1840485E0,1.9002091E0],"tree_param":{"num_deleted":"0","num_feature":"32","num_nodes":"51","size_leaf_vector":"1"}},{"base_weights":[-1.5427159E-2,7.5504416E-1,-8.314671E-1,1.2067026E0,-1.2405411E0,-1.1183544E0,2.6310515E-1,2.1570053E0,-3.1605497E-2,-1.2809179E0,-2.8489863E-3,-1.3157794E0,-1.2519538E-1,1.2385329E0,-6.8903595E-1,2.214517E0,1.8590975E-1,-6.867247E-1,2.1642747E0,-4.5323044E-1,-1.3231062E0,-5.6877127E-4,-1.3291715E0,1.192901E0,-1.0333465E0,1.9468162E0,-1.2040907E-2,-1.135568E0,1.4487559E0,2.2312552E-2,6.844937E-3,-9.125042E-3,1.3802058E-2,-1.3024177E-2,1.8338893E-2,2.2636589E-2,9.186863E-3,-8.116992E-3,1.161476E-3,-1.3719101E-2,-5.007836E-3,-5.5129128E-3,-1.3416734E-2,1.7806081E-2,-1.0008445E-2,-1.2509241E-2,7.200069E-3,8.990475E-3,2.101406E-2,-1.2171694E-2,-1.823648E-3,4.8582004E-3,1.6747784E-2],"categories":[],"categories_nodes":[],"categories_segments":[],"categories_sizes":[],"default_left":[0,0,0,0,0,0,0,0,0,0,0,0,0,0,0,0,0,0,0,0,0,0,0,0,0,0,0,0,0,0,0,0,0,0,0,0,0,0,0,0,0,0,0,0,0,0,0,0,0,0,0,0,0],"id":10,"left_children":[1,3,5,7,9,11,13,15,17,19,-1,21,23,25,27,29,31,33,35,37,39,-1,41,43,45,47,-1,49,51,-1,-1,-1,-1,-1,-1,-1,-1,-1,-1,-1,-1,-1,-1,-1,-1,-1,-1,-1,-1,-1,-1,-1,-1],"loss_changes":[2.4752454E2,1.8402164E2,6.0328506E1,1.9498795E2,1.0962181E0,2.9573563E1,3.847863E1,1.0213989E1,1.06367676E2,6.590233E-1,0E0,2.055664E0,3.266086E1,3.758343E1,2.1828308E1,8.027954E-1,6.1775117E0,9.071344E1,2.4108887E-2,7.615444E-1,6.685333E-1,0E0,4.763031E-1,1.6189026E1,7.0353165E0,7.302284E-1,0E0,1.1820564E0,7.7100754E-2,0E0,0E0,0E0,0E0,0E0,0E0,0E0,0E0,0E0,0E0,0E0,0E0,0E0,0E0,0E0,0E0,0E0,0E0,0E0,0E0,0E0,0E0,0E0,0E0],"parents":[2147483647,0,0,1,1,2,2,3,3,4,4,5,5,6,6,7,7,8,8,9,9,11,11,12,12,13,13,14,14,15,15,16,16,17,17,18,18,19,19,20,20,22,22,23,23,24,24,25,25,27,27,28,28],"right_children":[2,4,6,8,10,12,14,16,18,20,-1,22,24,26,28,30,32,34,36,38,40,-1,42,44,46,48,-1,50,52,-1,-1,-1,-1,-1,-1,-1,-1,-1,-1,-1,-1,-1,-1,-1,-1,-1,-1,-1,-1,-1,-1,-1,-1],"split_conditions":[2.2008264E-2,1.0762247E0,1E0,4.518487E-2,1.5414448E0,1E0,-6.1428014E-2,-1.9085713E-2,1E0,-1.5174997E0,-2.8489863E-3,-1.7159437E0,-8.941935E-2,9.792746E-1,1E0,1.4698674E-2,4.1488484E-1,1E0,1.224133E0,-3.0088583E-1,-9.6338935E-2,-5.6877127E-4,-1.6577778E0,1.019067E0,1.4460031E0,-1.1084838E0,-1.2040907E-2,1.3446627E0,1.0290552E0,2.2312552E-2,6.844937E-3,-9.125042E-3,1.3802058E-2,-1.3024177E-2,1.8338893E-2,2.2636589E-2,9.186863E-3,-8.116992E-3,1.161476E-3,-1.3719101E-2,-5.007836E-3,-5.5129128E-3,-1.3416734E-2,1.7806081E-2,-1.0008445E-2,-1.2509241E-2,7.200069E-3,8.990475E-3,2.101406E-2,-1.2171694E-2,-1.823648E-3,4.8582004E-3,1.6747784E-2],"split_indices":[23,22,24,26,8,25,26,23,24,26,0,21,26,22,25,26,18,25,9,7,23,0,19,22,20,7,0,18,26,0,0,0,0,0,0,0,0,0,0,0,0,0,0,0,0,0,0,0,0,0,0,0,0],"split_type":[0,0,0,0,0,0,0,0,0,0,0,0,0,0,0,0,0,0,0,0,0,0,0,0,0,0,0,0,0,0,0,0,0,0,0,0,0,0,0,0,0,0,0,0,0,0,0,0,0,0,0,0,0],"sum_hessian":[3.9168784E2,2.015075E2,1.9018034E2,1.6464003E2,3.6867474E1,1.5066843E2,3.951192E1,9.273298E1,7.190706E1,3.5046356E1,1.821118E0,1.25413315E2,2.525511E1,1.9368715E1,2.0143206E1,8.998397E1,2.7490087E0,5.5913177E1,1.5993878E1,2.2692475E0,3.2777107E1,1.3753251E0,1.2403799E2,1.0174388E1,1.5080722E1,1.5172231E1,4.196484E0,1.7050573E1,3.0926323E0,8.855686E1,1.4271052E0,1.5548946E0,1.1941142E0,4.5325195E1,1.058798E1,1.4055097E1,1.9387817E0,1.1313703E0,1.1378771E0,3.030991E1,2.467197E0,2.6752775E0,1.2136272E2,8.173123E0,2.0012646E0,1.3670831E1,1.4098914E0,2.8270354E0,1.2345196E1,1.5450931E1,1.5996422E0,1.1866244E0,1.9060079E0],"tree_param":{"num_deleted":"0","num_feature":"32","num_nodes":"53","size_leaf_vector":"1"}},{"base_weights":[-1.5197188E-2,7.474309E-1,-8.2587117E-1,1.1934562E0,-1.233927E0,-1.1117784E0,2.6123253E-1,2.1282675E0,-3.0859105E-2,-1.2742306E0,-2.8321638E-3,-1.3087475E0,-1.2404072E-1,1.2249731E0,-6.836659E-1,2.1847003E0,1.8535164E-1,-6.818172E-1,2.137278E-2,-4.5116687E-1,-1.3162963E0,-5.6553225E-4,-1.3221276E0,1.1793996E0,-1.0269818E0,1.9231025E0,-1.1983875E-2,-1.1291115E0,1.4366919E0,6.7986944E-3,2.2010643E-2,-9.086517E-3,1.3705388E-2,-1.2954538E-2,1.8113643E-2,-8.093614E-3,1.1673756E-3,-1.3650177E-2,-4.977933E-3,-6.9877375E-3,-1.3404817E-2,1.7593527E-2,-9.964039E-3,-1.2443034E-2,7.150572E-3,1.1585076E-2,2.1845086E-2,-1.210524E-2,-1.8130265E-3,1.6625088E-2,4.8004966E-3],"categories":[],"categories_nodes":[],"categories_segments":[],"categories_sizes":[],"default_left":[0,0,0,0,0,0,0,0,0,0,0,0,0,0,0,0,0,0,0,0,0,0,0,0,0,0,0,0,0,0,0,0,0,0,0,0,0,0,0,0,0,0,0,0,0,0,0,0,0,0,0],"id":11,"left_children":[1,3,5,7,9,11,13,15,17,19,-1,21,23,25,27,29,31,33,-1,35,37,-1,39,41,43,45,-1,47,49,-1,-1,-1,-1,-1,-1,-1,-1,-1,-1,-1,-1,-1,-1,-1,-1,-1,-1,-1,-1,-1,-1],"loss_changes":[2.4304208E2,1.804926E2,5.9514633E1,1.8989091E2,1.084198E0,2.9226807E1,3.7707462E1,9.908447E0,1.0419809E2,6.488762E-1,0E0,2.033615E0,3.2070053E1,3.682181E1,2.1537739E1,7.522583E-1,6.1045833E0,8.9160034E1,0E0,7.5901663E-1,6.615219E-1,0E0,4.873047E-1,1.5880429E1,6.9562035E0,7.117729E-1,0E0,1.1683121E0,8.7776184E-2,0E0,0E0,0E0,0E0,0E0,0E0,0E0,0E0,0E0,0E0,0E0,0E0,0E0,0E0,0E0,0E0,0E0,0E0,0E0,0E0,0E0,0E0],"parents":[2147483647,0,0,1,1,2,2,3,3,4,4,5,5,6,6,7,7,8,8,9,9,11,11,12,12,13,13,14,14,15,15,16,16,17,17,19,19,20,20,22,22,23,23,24,24,25,25,27,27,28,28],"right_children":[2,4,6,8,10,12,14,16,18,20,-1,22,24,26,28,30,32,34,-1,36,38,-1,40,42,44,46,-1,48,50,-1,-1,-1,-1,-1,-1,-1,-1,-1,-1,-1,-1,-1,-1,-1,-1,-1,-1,-1,-1,-1,-1],"split_conditions":[2.2008264E-2,1.0762247E0,1E0,4.518487E-2,1.5414448E0,1E0,-6.1428014E-2,-1.9085713E-2,1E0,-1.5174997E0,-2.8321638E-3,-1.7159437E0,-8.941935E-2,9.792746E-1,1E0,-1.6530607E0,4.1488484E-1,1E0,2.137278E-2,4.6933952E-1,-9.6338935E-2,-5.6553225E-4,-1.5911479E0,1.019067E0,1.4460031E0,-6.123713E-1,-1.1983875E-2,1.3446627E0,8.107854E-3,6.7986944E-3,2.2010643E-2,-9.086517E-3,1.3705388E-2,-1.2954538E-2,1.8113643E-2,-8.093614E-3,1.1673756E-3,-1.3650177E-2,-4.977933E-3,-6.9877375E-3,-1.3404817E-2,1.7593527E-2,-9.964039E-3,-1.2443034E-2,7.150572E-3,1.1585076E-2,2.1845086E-2,-1.210524E-2,-1.8130265E-3,1.6625088E-2,4.8004966E-3],"split_indices":[23,22,24,26,8,25,26,23,24,26,0,21,26,22,25,22,18,25,0,9,23,0,26,22,20,7,0,18,22,0,0,0,0,0,0,0,0,0,0,0,0,0,0,0,0,0,0,0,0,0,0],"split_type":[0,0,0,0,0,0,0,0,0,0,0,0,0,0,0,0,0,0,0,0,0,0,0,0,0,0,0,0,0,0,0,0,0,0,0,0,0,0,0,0,0,0,0,0,0,0,0,0,0,0,0],"sum_hessian":[3.911191E2,2.015718E2,1.8954732E2,1.648581E2,3.6713696E1,1.5005919E2,3.9488132E1,9.306279E1,7.179531E1,3.489413E1,1.8195636E0,1.24839424E2,2.5219774E1,1.940241E1,2.008572E1,9.031511E1,2.747683E0,5.5744267E1,1.605104E1,2.2668014E0,3.262733E1,1.3750995E0,1.2346432E2,1.0195659E1,1.5024115E1,1.5223273E1,4.179137E0,1.6984995E1,3.1007252E0,1.4292431E0,8.8885864E1,1.5501355E0,1.1975474E0,4.511957E1,1.0624697E1,1.1293279E0,1.1374733E0,3.0164106E1,2.4632242E0,4.64885E0,1.1881547E2,8.201087E0,1.9945719E0,1.3611751E1,1.4123638E0,5.2625384E0,9.960735E0,1.53862095E1,1.5987861E0,1.9116247E0,1.1891006E0],"tree_param":{"num_deleted":"0","num_feature":"32","num_nodes":"51","size_leaf_vector":"1"}},{"base_weights":[-1.4992816E-2,7.399586E-1,-8.2035154E-1,1.1805117E0,-1.2274058E0,-1.1053085E0,2.5948825E-1,2.1004884E0,-3.0265626E-2,-1.3070803E0,-6.0429883E-1,-1.3018268E0,-1.229105E-1,1.2119457E0,-6.7836475E-1,2.1558914E0,1.8479115E-1,-6.76992E-1,2.1103306E0,-3.6861908E-3,-1.3578635E0,2.1227328E-1,-1.1223118E-2,-5.623119E-4,-1.3151963E0,1.1662048E0,-1.0206972E0,1.9003073E0,-1.192758E-2,-1.1227328E0,1.4248203E0,2.1722538E-2,6.6505675E-3,-9.048333E-3,1.3610095E-2,-1.2885905E-2,1.7894417E-2,2.2074498E-2,8.954406E-3,-1.4169365E-2,-4.2352527E-3,-7.825423E-3,1.1027431E-2,-5.40358E-3,-1.3277336E-2,1.7386407E-2,-9.920073E-3,-1.2377721E-2,7.101532E-3,8.806545E-3,2.0504102E-2,-1.2039638E-2,-1.8024674E-3,4.7434103E-3,1.6504588E-2],"categories":[],"categories_nodes":[],"categories_segments":[],"categories_sizes":[],"default_left":[0,0,0,0,0,0,0,0,0,0,0,0,0,0,0,0,0,0,0,0,0,0,0,0,0,0,0,0,0,0,0,0,0,0,0,0,0,0,0,0,0,0,0,0,0,0,0,0,0,0,0,0,0,0,0],"id":12,"left_children":[1,3,5,7,9,11,13,15,17,19,21,23,25,27,29,31,33,35,37,-1,39,41,-1,-1,43,45,47,49,-1,51,53,-1,-1,-1,-1,-1,-1,-1,-1,-1,-1,-1,-1,-1,-1,-1,-1,-1,-1,-1,-1,-1,-1,-1,-1],"loss_changes":[2.3864777E2,1.770524E2,5.8722137E1,1.8501994E2,1.0747681E0,2.8884766E1,3.6963932E1,9.617401E0,1.020426E2,1.0455437E0,2.8260887E0,2.012024E0,3.1492702E1,3.6089027E1,2.1251835E1,7.9034424E-1,6.0327682E0,8.764292E1,4.168701E-2,0E0,1.0779572E0,3.7114828E0,0E0,0E0,4.860382E-1,1.5580702E1,6.878235E0,6.8463135E-1,0E0,1.1548576E0,9.8257065E-2,0E0,0E0,0E0,0E0,0E0,0E0,0E0,0E0,0E0,0E0,0E0,0E0,0E0,0E0,0E0,0E0,0E0,0E0,0E0,0E0,0E0,0E0,0E0,0E0],"parents":[2147483647,0,0,1,1,2,2,3,3,4,4,5,5,6,6,7,7,8,8,9,9,10,10,11,11,12,12,13,13,14,14,15,15,16,16,17,17,18,18,20,20,21,21,24,24,25,25,26,26,27,27,29,29,30,30],"right_children":[2,4,6,8,10,12,14,16,18,20,22,24,26,28,30,32,34,36,38,-1,40,42,-1,-1,44,46,48,50,-1,52,54,-1,-1,-1,-1,-1,-1,-1,-1,-1,-1,-1,-1,-1,-1,-1,-1,-1,-1,-1,-1,-1,-1,-1,-1],"split_conditions":[2.2008264E-2,1.0762247E0,1E0,4.518487E-2,1.1951581E0,1E0,-6.1428014E-2,-1.9085713E-2,1E0,-1.5174997E0,-2.4147934E-1,-1.7159437E0,-8.941935E-2,9.792746E-1,1E0,1.4698674E-2,4.1488484E-1,1E0,1.224133E0,-3.6861908E-3,-1.083864E-1,-1.0123909E0,-1.1223118E-2,-5.623119E-4,-1.6577778E0,1.019067E0,1.4460031E0,-1.1084838E0,-1.192758E-2,1.3446627E0,-8.19663E-1,2.1722538E-2,6.6505675E-3,-9.048333E-3,1.3610095E-2,-1.2885905E-2,1.7894417E-2,2.2074498E-2,8.954406E-3,-1.4169365E-2,-4.2352527E-3,-7.825423E-3,1.1027431E-2,-5.40358E-3,-1.3277336E-2,1.7386407E-2,-9.920073E-3,-1.2377721E-2,7.101532E-3,8.806545E-3,2.0504102E-2,-1.2039638E-2,-1.8024674E-3,4.7434103E-3,1.6504588E-2],"split_indices":[23,22,24,26,8,25,26,23,24,26,16,21,26,22,25,26,18,25,9,0,23,16,0,0,19,22,20,7,0,18,16,0,0,0,0,0,0,0,0,0,0,0,0,0,0,0,0,0,0,0,0,0,0,0,0],"split_type":[0,0,0,0,0,0,0,0,0,0,0,0,0,0,0,0,0,0,0,0,0,0,0,0,0,0,0,0,0,0,0,0,0,0,0,0,0,0,0,0,0,0,0,0,0,0,0,0,0,0,0,0,0,0,0],"sum_hessian":[3.9051004E2,2.0160483E2,1.889052E2,1.6504594E2,3.655889E1,1.4944489E2,3.9460323E1,9.336798E1,7.167796E1,3.1440966E1,5.1179256E0,1.2426236E2,2.5182522E1,1.9432728E1,2.0027594E1,9.0621765E1,2.7462125E0,5.5572037E1,1.6105932E1,2.037999E0,2.9402967E1,2.2155888E0,2.9023366E0,1.3748751E0,1.2288748E2,1.0215417E1,1.4967105E1,1.5271049E1,4.1616797E0,1.6919054E1,3.10854E0,8.918584E1,1.4359272E0,1.5453546E0,1.200858E0,4.491265E1,1.0659386E1,1.4157198E1,1.9487334E0,2.7168728E1,2.2342386E0,1.103728E0,1.1118606E0,2.6589324E0,1.2022855E2,8.227573E0,1.9878433E0,1.3552316E1,1.4147892E0,2.8407528E0,1.2430295E1,1.5321121E1,1.5979329E0,1.1915354E0,1.9170048E0],"tree_param":{"num_deleted":"0","num_feature":"32","num_nodes":"55","size_leaf_vector":"1"}},{"base_weights":[-1.4778695E-2,7.327184E-1,-8.149326E-1,1.1679987E0,-1.2209995E0,-1.098929E0,2.5768217E-1,2.0736163E0,-2.9548297E-2,-1.2612461E0,-2.7846533E-3,-1.2950008E0,-1.2180383E-1,1.1990491E0,-6.731306E-1,2.1280355E0,1.8422864E-1,-6.722468E-1,2.0850136E0,-4.4646278E-1,-1.3031324E0,-5.591088E-4,-1.308361E0,1.1533059E0,-1.0144908E0,1.877902E0,-1.1872008E-2,-1.1164294E0,1.413137E0,2.1440567E-2,6.606022E-3,-9.010483E-3,1.35161495E-2,-1.2818249E-2,1.7680958E-2,2.1801181E-2,8.886877E-3,-8.060262E-3,1.2077024E-3,-1.3517169E-2,-4.9191443E-3,-6.8630595E-3,-1.3267777E-2,1.7184505E-2,-9.876541E-3,-1.2313278E-2,7.0529412E-3,1.1320979E-2,2.1329053E-2,-1.2419212E-2,-3.8879109E-3,4.686852E-3,1.6386073E-2],"categories":[],"categories_nodes":[],"categories_segments":[],"categories_sizes":[],"default_left":[0,0,0,0,0,0,0,0,0,0,0,0,0,0,0,0,0,0,0,0,0,0,0,0,0,0,0,0,0,0,0,0,0,0,0,0,0,0,0,0,0,0,0,0,0,0,0,0,0,0,0,0,0],"id":13,"left_children":[1,3,5,7,9,11,13,15,17,19,-1,21,23,25,27,29,31,33,35,37,39,-1,41,43,45,47,-1,49,51,-1,-1,-1,-1,-1,-1,-1,-1,-1,-1,-1,-1,-1,-1,-1,-1,-1,-1,-1,-1,-1,-1,-1,-1],"loss_changes":[2.3437462E2,1.7372443E2,5.7933342E1,1.8030968E2,1.0676651E0,2.8546661E1,3.623237E1,9.339752E0,1.00001366E2,6.32782E-1,0E0,1.9908752E0,3.0928377E1,3.5372902E1,2.0970505E1,7.4432373E-1,5.962044E0,8.616087E1,1.4381409E-2,7.6249677E-1,6.4860916E-1,0E0,5.0205994E-1,1.5289474E1,6.801386E0,6.8834305E-1,0E0,1.1473331E0,1.0851002E-1,0E0,0E0,0E0,0E0,0E0,0E0,0E0,0E0,0E0,0E0,0E0,0E0,0E0,0E0,0E0,0E0,0E0,0E0,0E0,0E0,0E0,0E0,0E0,0E0],"parents":[2147483647,0,0,1,1,2,2,3,3,4,4,5,5,6,6,7,7,8,8,9,9,11,11,12,12,13,13,14,14,15,15,16,16,17,17,18,18,19,19,20,20,22,22,23,23,24,24,25,25,27,27,28,28],"right_children":[2,4,6,8,10,12,14,16,18,20,-1,22,24,26,28,30,32,34,36,38,40,-1,42,44,46,48,-1,50,52,-1,-1,-1,-1,-1,-1,-1,-1,-1,-1,-1,-1,-1,-1,-1,-1,-1,-1,-1,-1,-1,-1,-1,-1],"split_conditions":[2.2008264E-2,1.0762247E0,1E0,4.518487E-2,1.5414448E0,1E0,-6.1428014E-2,-1.9085713E-2,1E0,-1.5174997E0,-2.7846533E-3,-1.7159437E0,-8.941935E-2,9.792746E-1,1E0,1.4698674E-2,4.1488484E-1,1E0,1.224133E0,-4.1853547E-1,-9.6338935E-2,-5.591088E-4,-1.5911479E0,1.019067E0,1.4460031E0,-6.123713E-1,-1.1872008E-2,1.5070705E0,1.0290552E0,2.1440567E-2,6.606022E-3,-9.010483E-3,1.35161495E-2,-1.2818249E-2,1.7680958E-2,2.1801181E-2,8.886877E-3,-8.060262E-3,1.2077024E-3,-1.3517169E-2,-4.9191443E-3,-6.8630595E-3,-1.3267777E-2,1.7184505E-2,-9.876541E-3,-1.2313278E-2,7.0529412E-3,1.1320979E-2,2.1329053E-2,-1.2419212E-2,-3.8879109E-3,4.686852E-3,1.6386073E-2],"split_indices":[23,22,24,26,8,25,26,23,24,26,0,21,26,22,25,26,18,25,9,21,23,0,26,22,20,7,0,23,26,0,0,0,0,0,0,0,0,0,0,0,0,0,0,0,0,0,0,0,0,0,0,0,0],"split_type":[0,0,0,0,0,0,0,0,0,0,0,0,0,0,0,0,0,0,0,0,0,0,0,0,0,0,0,0,0,0,0,0,0,0,0,0,0,0,0,0,0,0,0,0,0,0,0,0,0,0,0,0,0],"sum_hessian":[3.8985858E2,2.0160507E2,1.8825351E2,1.6520113E2,3.6403954E1,1.4882465E2,3.9428875E1,9.364936E1,7.155176E1,3.4588852E1,1.8151033E0,1.2368123E2,2.514341E1,1.9460026E1,1.9968851E1,9.090476E1,2.7445996E0,5.5396633E1,1.6155127E1,2.2612522E0,3.23276E1,1.3746517E0,1.2230658E2,1.0233699E1,1.4909712E1,1.5315908E1,4.1441174E0,1.685277E1,3.11608E0,8.946687E1,1.4378871E0,1.5405525E0,1.204047E0,4.4704533E1,1.06921E1,1.4203636E1,1.951491E0,1.1263138E0,1.1349384E0,2.9872238E1,2.4553592E0,4.617238E0,1.1768934E2,8.252618E0,1.9810805E0,1.3492543E1,1.4171685E0,5.2884374E0,1.0027471E1,1.3770984E1,3.0817864E0,1.1938734E0,1.9222066E0],"tree_param":{"num_deleted":"0","num_feature":"32","num_nodes":"53","size_leaf_vector":"1"}},{"base_weights":[-1.4565549E-2,7.2567296E-1,-8.095915E-1,1.1558298E0,-1.214654E0,-1.09265E0,2.559266E-1,2.0476108E0,-2.8844496E-2,-1.2943342E0,-5.947915E-1,-1.2882799E0,-1.20719954E-1,1.18665E0,-6.680321E-1,2.1010897E0,1.8366426E-1,-6.6757935E-1,2.0604784E-2,-3.6410545E-3,-1.3450356E0,2.186233E-1,-1.1136452E-2,-5.559259E-4,-1.3016324E0,1.1406921E0,-1.008361E0,1.8563447E0,-1.18171405E-2,-1.1102424E0,1.4016373E0,6.4640036E-3,2.1171182E-2,-8.9729605E-3,1.3423528E-2,-1.2751547E-2,1.7473035E-2,-1.4040723E-2,-4.180769E-3,-7.7525494E-3,1.1014556E-2,-2.755535E-3,-1.30846E-2,1.6987618E-2,-9.833434E-3,-1.2249688E-2,7.0047933E-3,1.0639867E-2,2.0782756E-2,-1.1915712E-2,-1.7409597E-3,4.6308856E-3,1.6269423E-2],"categories":[],"categories_nodes":[],"categories_segments":[],"categories_sizes":[],"default_left":[0,0,0,0,0,0,0,0,0,0,0,0,0,0,0,0,0,0,0,0,0,0,0,0,0,0,0,0,0,0,0,0,0,0,0,0,0,0,0,0,0,0,0,0,0,0,0,0,0,0,0,0,0],"id":14,"left_children":[1,3,5,7,9,11,13,15,17,19,21,23,25,27,29,31,33,35,-1,-1,37,39,-1,-1,41,43,45,47,-1,49,51,-1,-1,-1,-1,-1,-1,-1,-1,-1,-1,-1,-1,-1,-1,-1,-1,-1,-1,-1,-1,-1,-1],"loss_changes":[2.3020511E2,1.704808E2,5.7160706E1,1.7577757E2,1.0698166E0,2.8213135E1,3.553064E1,9.074646E0,9.801989E1,1.0267944E0,2.8149137E0,1.9701996E0,3.03767E1,3.4683205E1,2.0694624E1,7.8045654E-1,5.892389E0,8.471266E1,0E0,0E0,1.061367E0,3.6693718E0,0E0,0E0,4.9920654E-1,1.5006402E1,6.7256355E0,6.6522217E-1,0E0,1.1468353E0,1.1850357E-1,0E0,0E0,0E0,0E0,0E0,0E0,0E0,0E0,0E0,0E0,0E0,0E0,0E0,0E0,0E0,0E0,0E0,0E0,0E0,0E0,0E0,0E0],"parents":[2147483647,0,0,1,1,2,2,3,3,4,4,5,5,6,6,7,7,8,8,9,9,10,10,11,11,12,12,13,13,14,14,15,15,16,16,17,17,20,20,21,21,24,24,25,25,26,26,27,27,29,29,30,30],"right_children":[2,4,6,8,10,12,14,16,18,20,22,24,26,28,30,32,34,36,-1,-1,38,40,-1,-1,42,44,46,48,-1,50,52,-1,-1,-1,-1,-1,-1,-1,-1,-1,-1,-1,-1,-1,-1,-1,-1,-1,-1,-1,-1,-1,-1],"split_conditions":[2.2008264E-2,1.0762247E0,1E0,4.518487E-2,1.1951581E0,1E0,-6.1428014E-2,-1.9085713E-2,1E0,-1.5174997E0,-2.4147934E-1,-1.7159437E0,-8.941935E-2,9.792746E-1,1E0,-1.6530607E0,4.1488484E-1,1E0,2.0604784E-2,-3.6410545E-3,-1.083864E-1,-1.0123909E0,-1.1136452E-2,-5.559259E-4,-1.687722E0,1.019067E0,1.4460031E0,-7.531053E-1,-1.18171405E-2,1.3446627E0,-3.2374772E-1,6.4640036E-3,2.1171182E-2,-8.9729605E-3,1.3423528E-2,-1.2751547E-2,1.7473035E-2,-1.4040723E-2,-4.180769E-3,-7.7525494E-3,1.1014556E-2,-2.755535E-3,-1.30846E-2,1.6987618E-2,-9.833434E-3,-1.2249688E-2,7.0047933E-3,1.0639867E-2,2.0782756E-2,-1.1915712E-2,-1.7409597E-3,4.6308856E-3,1.6269423E-2],"split_indices":[23,22,24,26,8,25,26,23,24,26,16,21,26,22,25,22,18,25,0,0,23,16,0,0,7,22,20,8,0,18,19,0,0,0,0,0,0,0,0,0,0,0,0,0,0,0,0,0,0,0,0,0,0],"split_type":[0,0,0,0,0,0,0,0,0,0,0,0,0,0,0,0,0,0,0,0,0,0,0,0,0,0,0,0,0,0,0,0,0,0,0,0,0,0,0,0,0,0,0,0,0,0,0,0,0,0,0,0,0],"sum_hessian":[3.8916855E2,2.0157338E2,1.8759517E2,1.6532607E2,3.624732E1,1.4819989E2,3.939528E1,9.390744E1,7.1418625E1,3.1154469E1,5.092848E0,1.2309739E2,2.5102495E1,1.948416E1,1.9911121E1,9.116459E1,2.7428463E0,5.5218155E1,1.620047E1,2.0331535E0,2.9121315E1,2.2087688E0,2.884079E0,1.3744295E0,1.2172296E2,1.0250539E1,1.4851955E1,1.5357702E1,4.126457E0,1.6787773E1,3.1233482E0,1.4439747E0,8.972062E1,1.5357304E0,1.2071158E0,4.4495274E1,1.0722882E1,2.6893778E1,2.227538E0,1.0963596E0,1.1124092E0,1.0779845E0,1.2064497E2,8.276254E0,1.9742852E0,1.3432453E1,1.4195019E0,4.6281347E0,1.0729568E1,1.5194855E1,1.5929183E0,1.196112E0,1.9272363E0],"tree_param":{"num_deleted":"0","num_feature":"32","num_nodes":"53","size_leaf_vector":"1"}},{"base_weights":[-1.4372495E-2,7.187355E-1,-8.043055E-1,1.1439189E0,-1.2084249E0,-1.0864422E0,2.5424153E-1,2.0224264E0,-2.8288506E-2,-1.2879955E0,-5.910969E-1,-1.2816321E0,-1.1965818E-1,1.1744044E0,-6.629246E-1,2.0750055E0,1.8309812E-1,-6.629873E-1,2.0359216E0,-3.619406E-3,-1.3386599E0,2.1737252E-1,-1.1084698E-2,-5.527587E-4,-1.2949778E0,1.1283535E0,-1.0023053E0,1.835119E0,-1.1762964E-2,-1.1040803E0,1.3903168E0,2.0907225E-2,6.4209746E-3,-8.9357635E-3,1.3332202E-2,-1.2685771E-2,1.727042E-2,2.1291746E-2,8.666292E-3,-1.3976732E-2,-4.1559013E-3,-7.723043E-3,1.0935621E-2,-6.7383633E-3,-1.3134727E-2,1.6795548E-2,-9.790744E-3,-1.2186921E-2,6.9570844E-3,1.1032357E-2,2.0866755E-2,-1.229703E-2,-3.7997055E-3,4.5756847E-3,1.6154552E-2],"categories":[],"categories_nodes":[],"categories_segments":[],"categories_sizes":[],"default_left":[0,0,0,0,0,0,0,0,0,0,0,0,0,0,0,0,0,0,0,0,0,0,0,0,0,0,0,0,0,0,0,0,0,0,0,0,0,0,0,0,0,0,0,0,0,0,0,0,0,0,0,0,0,0,0],"id":15,"left_children":[1,3,5,7,9,11,13,15,17,19,21,23,25,27,29,31,33,35,37,-1,39,41,-1,-1,43,45,47,49,-1,51,53,-1,-1,-1,-1,-1,-1,-1,-1,-1,-1,-1,-1,-1,-1,-1,-1,-1,-1,-1,-1,-1,-1,-1,-1],"loss_changes":[2.2610608E2,1.6732155E2,5.640172E1,1.7143895E2,1.0605927E0,2.7882614E1,3.483861E1,8.821381E0,9.604821E1,1.0172081E0,2.7853925E0,1.9498749E0,2.9837261E1,3.400901E1,2.0422073E1,7.385254E-1,5.8237844E0,8.3297195E1,3.504944E-2,0E0,1.0520592E0,3.627932E0,0E0,0E0,5.180054E-1,1.4731152E1,6.65096E0,7.1700287E-1,0E0,1.144722E0,1.2818003E-1,0E0,0E0,0E0,0E0,0E0,0E0,0E0,0E0,0E0,0E0,0E0,0E0,0E0,0E0,0E0,0E0,0E0,0E0,0E0,0E0,0E0,0E0,0E0,0E0],"parents":[2147483647,0,0,1,1,2,2,3,3,4,4,5,5,6,6,7,7,8,8,9,9,10,10,11,11,12,12,13,13,14,14,15,15,16,16,17,17,18,18,20,20,21,21,24,24,25,25,26,26,27,27,29,29,30,30],"right_children":[2,4,6,8,10,12,14,16,18,20,22,24,26,28,30,32,34,36,38,-1,40,42,-1,-1,44,46,48,50,-1,52,54,-1,-1,-1,-1,-1,-1,-1,-1,-1,-1,-1,-1,-1,-1,-1,-1,-1,-1,-1,-1,-1,-1,-1,-1],"split_conditions":[2.2008264E-2,1.0762247E0,1E0,4.518487E-2,1.1951581E0,1E0,-6.1428014E-2,-1.9085713E-2,1E0,-1.5174997E0,-2.4147934E-1,-1.7159437E0,-8.941935E-2,9.792746E-1,1E0,1.4698674E-2,4.1488484E-1,1E0,1.224133E0,-3.619406E-3,-1.083864E-1,-1.0123909E0,-1.1084698E-2,-5.527587E-4,-1.5911479E0,1.019067E0,1.4460031E0,-6.123713E-1,-1.1762964E-2,1.5070705E0,-3.1105453E-1,2.0907225E-2,6.4209746E-3,-8.9357635E-3,1.3332202E-2,-1.2685771E-2,1.727042E-2,2.1291746E-2,8.666292E-3,-1.3976732E-2,-4.1559013E-3,-7.723043E-3,1.0935621E-2,-6.7383633E-3,-1.3134727E-2,1.6795548E-2,-9.790744E-3,-1.2186921E-2,6.9570844E-3,1.1032357E-2,2.0866755E-2,-1.229703E-2,-3.7997055E-3,4.5756847E-3,1.6154552E-2],"split_indices":[23,22,24,26,8,25,26,23,24,26,16,21,26,22,25,26,18,25,9,0,23,16,0,0,26,22,20,7,0,23,7,0,0,0,0,0,0,0,0,0,0,0,0,0,0,0,0,0,0,0,0,0,0,0,0],"split_type":[0,0,0,0,0,0,0,0,0,0,0,0,0,0,0,0,0,0,0,0,0,0,0,0,0,0,0,0,0,0,0,0,0,0,0,0,0,0,0,0,0,0,0,0,0,0,0,0,0,0,0,0,0,0,0],"sum_hessian":[3.884415E2,2.0151392E2,1.8692758E2,1.6542348E2,3.6090443E1,1.4756929E2,3.93583E1,9.4142975E1,7.1280495E1,3.1007341E1,5.0831017E0,1.2250946E2,2.5059832E1,1.9507048E1,1.9851254E1,9.1402016E1,2.7409546E0,5.503674E1,1.6243757E1,2.0308537E0,2.8976488E1,2.20981E0,2.8732915E0,1.3742083E0,1.2113525E2,1.0265971E1,1.47938595E1,1.5398344E1,4.1087027E0,1.6720905E1,3.1303494E0,8.9956245E1,1.4457697E0,1.530889E0,1.2100657E0,4.428496E1,1.07517805E1,1.4283699E1,1.9600585E0,2.6752031E1,2.2244573E0,1.0933782E0,1.116432E0,4.584979E0,1.1655027E2,8.298512E0,1.9674592E0,1.3372069E1,1.42179E0,5.3163886E0,1.0081956E1,1.365392E1,3.0669847E0,1.1982765E0,1.9320728E0],"tree_param":{"num_deleted":"0","num_feature":"32","num_nodes":"55","size_leaf_vector":"1"}},{"base_weights":[-1.4174198E-2,7.120213E-1,-7.991266E-1,1.1323949E0,-1.2022859E0,-1.0803444E0,2.525445E-1,1.998028E0,-2.7610928E-2,-1.2817518E0,-5.87451E-1,-1.2751011E0,-1.18617825E-1,1.1625799E0,-6.579498E-1,2.049746E0,1.8253031E-1,-6.5846866E-1,2.0128462E0,-3.5978924E-3,-1.3323861E0,2.1612482E-1,-1.10335415E-2,-5.496103E-4,-1.2884417E0,1.1162802E0,-9.9632233E-1,1.8146862E0,-1.170946E-2,-1.0980314E0,1.3791716E0,6.2828534E-3,2.065484E-2,-8.898885E-3,1.3242149E-2,-1.2620898E-2,1.7072897E-2,2.1043506E-2,8.601996E-3,-1.3913849E-2,-4.1311914E-3,-7.6937526E-3,1.0857577E-2,-5.1440434E-3,-1.3011606E-2,1.6608113E-2,-9.748463E-3,-1.2124965E-2,6.909807E-3,1.0921563E-2,2.0628488E-2,-1.17948055E-2,-1.6804873E-3,4.5209546E-3,1.6041968E-2],"categories":[],"categories_nodes":[],"categories_segments":[],"categories_sizes":[],"default_left":[0,0,0,0,0,0,0,0,0,0,0,0,0,0,0,0,0,0,0,0,0,0,0,0,0,0,0,0,0,0,0,0,0,0,0,0,0,0,0,0,0,0,0,0,0,0,0,0,0,0,0,0,0,0,0],"id":16,"left_children":[1,3,5,7,9,11,13,15,17,19,21,23,25,27,29,31,33,35,37,-1,39,41,-1,-1,43,45,47,49,-1,51,53,-1,-1,-1,-1,-1,-1,-1,-1,-1,-1,-1,-1,-1,-1,-1,-1,-1,-1,-1,-1,-1,-1,-1,-1],"loss_changes":[2.221257E2,1.6425636E2,5.565264E1,1.6723503E2,1.0515022E0,2.7557388E1,3.417157E1,8.579224E0,9.4179306E1,1.0079079E0,2.7562149E0,1.9300079E0,2.9309708E1,3.3358562E1,2.0154787E1,7.7423096E-1,5.756212E0,8.191336E1,1.2580872E-2,0E0,1.0430908E0,3.587058E0,0E0,0E0,5.2731323E-1,1.446342E1,6.5773354E0,6.9384E-1,0E0,1.1391201E0,1.378107E-1,0E0,0E0,0E0,0E0,0E0,0E0,0E0,0E0,0E0,0E0,0E0,0E0,0E0,0E0,0E0,0E0,0E0,0E0,0E0,0E0,0E0,0E0,0E0,0E0],"parents":[2147483647,0,0,1,1,2,2,3,3,4,4,5,5,6,6,7,7,8,8,9,9,10,10,11,11,12,12,13,13,14,14,15,15,16,16,17,17,18,18,20,20,21,21,24,24,25,25,26,26,27,27,29,29,30,30],"right_children":[2,4,6,8,10,12,14,16,18,20,22,24,26,28,30,32,34,36,38,-1,40,42,-1,-1,44,46,48,50,-1,52,54,-1,-1,-1,-1,-1,-1,-1,-1,-1,-1,-1,-1,-1,-1,-1,-1,-1,-1,-1,-1,-1,-1,-1,-1],"split_conditions":[2.2008264E-2,1.0762247E0,1E0,4.518487E-2,1.1951581E0,1E0,-6.1428014E-2,-1.9085713E-2,1E0,-1.5174997E0,-2.4147934E-1,-1.7159437E0,-8.941935E-2,9.792746E-1,1E0,-1.6530607E0,4.1488484E-1,1E0,1.224133E0,-3.5978924E-3,-1.083864E-1,-1.0123909E0,-1.10335415E-2,-5.496103E-4,-1.6577778E0,1.019067E0,1.4460031E0,-6.123713E-1,-1.170946E-2,1.3446627E0,1.0290552E0,6.2828534E-3,2.065484E-2,-8.898885E-3,1.3242149E-2,-1.2620898E-2,1.7072897E-2,2.1043506E-2,8.601996E-3,-1.3913849E-2,-4.1311914E-3,-7.6937526E-3,1.0857577E-2,-5.1440434E-3,-1.3011606E-2,1.6608113E-2,-9.748463E-3,-1.2124965E-2,6.909807E-3,1.0921563E-2,2.0628488E-2,-1.17948055E-2,-1.6804873E-3,4.5209546E-3,1.6041968E-2],"split_indices":[23,22,24,26,8,25,26,23,24,26,16,21,26,22,25,22,18,25,9,0,23,16,0,0,19,22,20,7,0,18,26,0,0,0,0,0,0,0,0,0,0,0,0,0,0,0,0,0,0,0,0,0,0,0,0],"split_type":[0,0,0,0,0,0,0,0,0,0,0,0,0,0,0,0,0,0,0,0,0,0,0,0,0,0,0,0,0,0,0,0,0,0,0,0,0,0,0,0,0,0,0,0,0,0,0,0,0,0,0,0,0,0,0],"sum_hessian":[3.8767627E2,2.0142326E2,1.8625299E2,1.6549068E2,3.5932587E1,1.4693513E2,3.9317852E1,9.435647E1,7.113422E1,3.0859379E1,5.0732064E0,1.2191967E2,2.5015472E1,1.9525412E1,1.9792439E1,9.161754E1,2.7389276E0,5.4852505E1,1.6281713E1,2.0285583E0,2.8830822E1,2.2107677E0,2.8624387E0,1.3739882E0,1.20545685E2,1.0280029E1,1.4735442E1,1.5434551E1,4.0908604E0,1.6655354E1,3.137086E0,1.451371E0,9.016617E1,1.5260297E0,1.212898E0,4.407366E1,1.077884E1,1.4319289E1,1.962424E0,2.660944E1,2.2213817E0,1.0903877E0,1.1203802E0,2.6187913E0,1.1792689E2,8.319426E0,1.960604E0,1.3311409E1,1.4240334E0,5.3267097E0,1.01078415E1,1.5067443E1,1.5879103E0,1.2004536E0,1.9366323E0],"tree_param":{"num_deleted":"0","num_feature":"32","num_nodes":"55","size_leaf_vector":"1"}},{"base_weights":[-1.3970204E-2,7.0546854E-1,-7.9401255E-1,1.121173E0,-1.1962347E0,-1.0743263E0,2.5094843E-1,1.9743749E0,-2.6945503E-2,-1.2364806E0,-2.6786258E-3,-1.2686534E0,-1.17598526E-1,1.1510307E0,-6.529629E-1,2.0252678E0,1.819613E-1,-6.540212E-1,1.9904524E-2,-4.3662575E-1,-1.2781273E0,-5.464805E-4,-1.28199E0,1.1044627E0,-9.904103E-1,1.7947884E0,-1.1656616E-2,-1.0920036E0,1.3681976E0,6.2414864E-3,2.0407196E-2,-8.862319E-3,1.31533425E-2,-1.2556907E-2,1.688027E-2,-7.993013E-3,1.2955479E-3,-1.3265327E-2,-4.8043253E-3,-6.6177207E-3,-1.3005651E-2,1.642513E-2,-9.706585E-3,-1.2063797E-2,6.8629575E-3,1.0225062E-2,2.0126976E-2,-1.2177967E-2,-3.7128543E-3,4.466879E-3,1.5930925E-2],"categories":[],"categories_nodes":[],"categories_segments":[],"categories_sizes":[],"default_left":[0,0,0,0,0,0,0,0,0,0,0,0,0,0,0,0,0,0,0,0,0,0,0,0,0,0,0,0,0,0,0,0,0,0,0,0,0,0,0,0,0,0,0,0,0,0,0,0,0,0,0],"id":17,"left_children":[1,3,5,7,9,11,13,15,17,19,-1,21,23,25,27,29,31,33,-1,35,37,-1,39,41,43,45,-1,47,49,-1,-1,-1,-1,-1,-1,-1,-1,-1,-1,-1,-1,-1,-1,-1,-1,-1,-1,-1,-1,-1,-1],"loss_changes":[2.1823148E2,1.6127202E2,5.4918716E1,1.6318246E2,1.042778E0,2.7235855E1,3.3517044E1,8.347504E0,9.2363E1,6.068077E-1,0E0,1.9105225E0,2.8793676E1,3.2726624E1,1.9890663E1,7.3565674E-1,5.689651E0,8.0560135E1,0E0,7.708108E-1,6.260948E-1,0E0,5.327759E-1,1.4202894E1,6.5047417E0,7.1336746E-1,0E0,1.1423988E0,1.4710808E-1,0E0,0E0,0E0,0E0,0E0,0E0,0E0,0E0,0E0,0E0,0E0,0E0,0E0,0E0,0E0,0E0,0E0,0E0,0E0,0E0,0E0,0E0],"parents":[2147483647,0,0,1,1,2,2,3,3,4,4,5,5,6,6,7,7,8,8,9,9,11,11,12,12,13,13,14,14,15,15,16,16,17,17,19,19,20,20,22,22,23,23,24,24,25,25,27,27,28,28],"right_children":[2,4,6,8,10,12,14,16,18,20,-1,22,24,26,28,30,32,34,-1,36,38,-1,40,42,44,46,-1,48,50,-1,-1,-1,-1,-1,-1,-1,-1,-1,-1,-1,-1,-1,-1,-1,-1,-1,-1,-1,-1,-1,-1],"split_conditions":[2.2008264E-2,1.0762247E0,1E0,4.518487E-2,1.5414448E0,1E0,-6.1428014E-2,-1.9085713E-2,1E0,-1.5174997E0,-2.6786258E-3,-1.7159437E0,-8.941935E-2,9.792746E-1,1E0,-1.6530607E0,4.1488484E-1,1E0,1.9904524E-2,-3.0088583E-1,-9.6338935E-2,-5.464805E-4,-1.5911479E0,1.019067E0,1.4460031E0,-7.531053E-1,-1.1656616E-2,1.5070705E0,-8.19663E-1,6.2414864E-3,2.0407196E-2,-8.862319E-3,1.31533425E-2,-1.2556907E-2,1.688027E-2,-7.993013E-3,1.2955479E-3,-1.3265327E-2,-4.8043253E-3,-6.6177207E-3,-1.3005651E-2,1.642513E-2,-9.706585E-3,-1.2063797E-2,6.8629575E-3,1.0225062E-2,2.0126976E-2,-1.2177967E-2,-3.7128543E-3,4.466879E-3,1.5930925E-2],"split_indices":[23,22,24,26,8,25,26,23,24,26,0,21,26,22,25,22,18,25,0,7,23,0,26,22,20,8,0,23,16,0,0,0,0,0,0,0,0,0,0,0,0,0,0,0,0,0,0,0,0,0,0],"split_type":[0,0,0,0,0,0,0,0,0,0,0,0,0,0,0,0,0,0,0,0,0,0,0,0,0,0,0,0,0,0,0,0,0,0,0,0,0,0,0,0,0,0,0,0,0,0,0,0,0,0,0],"sum_hessian":[3.8687274E2,2.0130411E2,1.8556865E2,1.655303E2,3.5773808E1,1.4629617E2,3.9272472E1,9.454865E1,7.098165E1,3.396932E1,1.804487E0,1.213267E2,2.4969471E1,1.9540932E1,1.9731543E1,9.181188E1,2.7367668E0,5.466555E1,1.6316097E1,2.2495282E0,3.1719791E1,1.3737693E0,1.1995293E2,1.0292747E1,1.46767235E1,1.5467997E1,4.0729346E0,1.658798E1,3.1435611E0,1.453E0,9.035889E1,1.5211529E0,1.215614E0,4.3861446E1,1.0804106E1,1.1202149E0,1.1293132E0,2.928007E1,2.4397202E0,4.5530725E0,1.1539986E2,8.3390255E0,1.953721E0,1.3250491E1,1.4262326E0,4.6567135E0,1.0811282E1,1.3535769E1,3.052211E0,1.2025017E0,1.9410595E0],"tree_param":{"num_deleted":"0","num_feature":"32","num_nodes":"51","size_leaf_vector":"1"}},{"base_weights":[-1.3802674E-2,6.990294E-1,-7.889845E-1,1.1101748E0,-1.1902126E0,-1.0684001E0,2.4927427E-1,1.9514364E0,-2.6423087E-2,-1.2697475E0,-5.7826513E-1,-1.2623024E0,-1.165994E-1,1.1396013E0,-6.4810634E-1,2.0015383E0,1.8139088E-1,-6.496431E-1,1.9679798E0,-3.5538222E-3,-1.3203536E0,2.2228245E-1,-1.095084E-2,-5.433681E-4,-1.2756364E0,1.0928925E0,-9.845674E-1,1.7751518E0,-1.1604416E-2,-1.0860863E0,1.357391E0,2.0170195E-2,6.1083054E-3,-8.826064E-3,1.3065761E-2,-1.2493773E-2,1.6692342E-2,2.0579815E-2,8.39215E-3,-1.3793854E-2,-4.0780925E-3,-7.623384E-3,1.0844686E-2,-5.040127E-3,-1.2884078E-2,1.6246438E-2,-9.665104E-3,-1.2003394E-2,6.816528E-3,1.0648891E-2,2.020525E-2,-1.1676772E-2,-1.6210265E-3,1.5821502E-2,4.413308E-3],"categories":[],"categories_nodes":[],"categories_segments":[],"categories_sizes":[],"default_left":[0,0,0,0,0,0,0,0,0,0,0,0,0,0,0,0,0,0,0,0,0,0,0,0,0,0,0,0,0,0,0,0,0,0,0,0,0,0,0,0,0,0,0,0,0,0,0,0,0,0,0,0,0,0,0],"id":18,"left_children":[1,3,5,7,9,11,13,15,17,19,21,23,25,27,29,31,33,35,37,-1,39,41,-1,-1,43,45,47,49,-1,51,53,-1,-1,-1,-1,-1,-1,-1,-1,-1,-1,-1,-1,-1,-1,-1,-1,-1,-1,-1,-1,-1,-1,-1,-1],"loss_changes":[2.144198E2,1.5834882E2,5.4191437E1,1.5929756E2,1.047802E0,2.691867E1,3.287864E1,8.125641E0,9.055305E1,9.914322E-1,2.7455668E0,1.8914337E0,2.828882E1,3.2107887E1,1.9631618E1,7.6989746E-1,5.6240826E0,7.9236534E1,3.5369873E-2,0E0,1.0289192E0,3.5465562E0,0E0,0E0,5.3671265E-1,1.3949305E1,6.433158E0,7.240753E-1,0E0,1.1316738E0,1.5615845E-1,0E0,0E0,0E0,0E0,0E0,0E0,0E0,0E0,0E0,0E0,0E0,0E0,0E0,0E0,0E0,0E0,0E0,0E0,0E0,0E0,0E0,0E0,0E0,0E0],"parents":[2147483647,0,0,1,1,2,2,3,3,4,4,5,5,6,6,7,7,8,8,9,9,10,10,11,11,12,12,13,13,14,14,15,15,16,16,17,17,18,18,20,20,21,21,24,24,25,25,26,26,27,27,29,29,30,30],"right_children":[2,4,6,8,10,12,14,16,18,20,22,24,26,28,30,32,34,36,38,-1,40,42,-1,-1,44,46,48,50,-1,52,54,-1,-1,-1,-1,-1,-1,-1,-1,-1,-1,-1,-1,-1,-1,-1,-1,-1,-1,-1,-1,-1,-1,-1,-1],"split_conditions":[2.2008264E-2,1.0762247E0,1E0,4.518487E-2,1.1951581E0,1E0,-6.1428014E-2,-1.9085713E-2,1E0,-1.5174997E0,-2.4147934E-1,-1.7159437E0,-8.941935E-2,9.792746E-1,1E0,1.4698674E-2,4.1488484E-1,1E0,1.224133E0,-3.5538222E-3,-1.083864E-1,-1.0123909E0,-1.095084E-2,-5.433681E-4,-1.6577778E0,1.019067E0,1.4460031E0,-6.123713E-1,-1.1604416E-2,1.3446627E0,8.107854E-3,2.0170195E-2,6.1083054E-3,-8.826064E-3,1.3065761E-2,-1.2493773E-2,1.6692342E-2,2.0579815E-2,8.39215E-3,-1.3793854E-2,-4.0780925E-3,-7.623384E-3,1.0844686E-2,-5.040127E-3,-1.2884078E-2,1.6246438E-2,-9.665104E-3,-1.2003394E-2,6.816528E-3,1.0648891E-2,2.020525E-2,-1.1676772E-2,-1.6210265E-3,1.5821502E-2,4.413308E-3],"split_indices":[23,22,24,26,8,25,26,23,24,26,16,21,26,22,25,26,18,25,9,0,23,16,0,0,19,22,20,7,0,18,22,0,0,0,0,0,0,0,0,0,0,0,0,0,0,0,0,0,0,0,0,0,0,0,0],"split_type":[0,0,0,0,0,0,0,0,0,0,0,0,0,0,0,0,0,0,0,0,0,0,0,0,0,0,0,0,0,0,0,0,0,0,0,0,0,0,0,0,0,0,0,0,0,0,0,0,0,0,0,0,0,0,0],"sum_hessian":[3.860397E2,2.0115881E2,1.8488089E2,1.6554463E2,3.5614193E1,1.4565364E2,3.9227253E1,9.4719986E1,7.082464E1,3.056653E1,5.047664E0,1.2073176E2,2.4921877E1,1.9555521E1,1.9671732E1,9.198551E1,2.7344747E0,5.4475998E1,1.634864E1,2.02373E0,2.8542799E1,2.2038398E0,2.8438244E0,1.3735515E0,1.1935821E2,1.0304154E1,1.4617723E1,1.5500589E1,4.0549316E0,1.6521954E1,3.1497786E0,9.052742E1,1.4580872E0,1.5162598E0,1.218215E0,4.364838E1,1.0827621E1,1.4378926E1,1.969714E0,2.6328074E1,2.214726E0,1.0829327E0,1.1209071E0,2.602203E0,1.16756004E2,8.357343E0,1.9468119E0,1.3189335E1,1.4283884E0,5.3510847E0,1.0149505E1,1.4939041E1,1.5829121E0,1.9453533E0,1.2044253E0],"tree_param":{"num_deleted":"0","num_feature":"32","num_nodes":"55","size_leaf_vector":"1"}},{"base_weights":[-1.3607414E-2,6.9278264E-1,-7.840197E-1,1.0995228E0,-1.1843215E0,-1.0625491E0,2.477312E-1,1.929177E0,-2.5780994E-2,-1.2637708E0,-5.747421E-1,-1.2560298E0,-1.15619935E-1,1.1285664E0,-6.432348E-1,1.9785203E0,1.8081924E-1,-6.4533216E-1,1.9468625E0,-3.532716E-3,-1.3143665E0,2.2099687E-1,-1.0901198E-2,-5.402729E-4,-1.2693624E0,1.0815612E0,-9.7879213E-1,1.756249E0,-1.1552847E-2,-1.0801865E0,1.3467476E0,1.9937387E-2,6.068409E-3,-8.790112E-3,1.2979378E-2,-1.2431473E-2,1.650894E-2,2.0353412E-2,8.330846E-3,-1.3734091E-2,-4.0538716E-3,-7.594808E-3,1.0767675E-2,-6.4989626E-3,-1.2880257E-2,1.6071877E-2,-9.62401E-3,-1.1943743E-2,6.770512E-3,9.9802E-3,1.970836E-2,-1.2061874E-2,-3.6273228E-3,4.360233E-3,1.5714308E-2],"categories":[],"categories_nodes":[],"categories_segments":[],"categories_sizes":[],"default_left":[0,0,0,0,0,0,0,0,0,0,0,0,0,0,0,0,0,0,0,0,0,0,0,0,0,0,0,0,0,0,0,0,0,0,0,0,0,0,0,0,0,0,0,0,0,0,0,0,0,0,0,0,0,0,0],"id":19,"left_children":[1,3,5,7,9,11,13,15,17,19,21,23,25,27,29,31,33,35,37,-1,39,41,-1,-1,43,45,47,49,-1,51,53,-1,-1,-1,-1,-1,-1,-1,-1,-1,-1,-1,-1,-1,-1,-1,-1,-1,-1,-1,-1,-1,-1,-1,-1],"loss_changes":[2.1070003E2,1.5551665E2,5.3479614E1,1.5552559E2,1.0391464E0,2.6605072E1,3.22555E1,7.9129944E0,8.883608E1,9.829407E-1,2.7169285E0,1.8726959E0,2.7794828E1,3.1510582E1,1.9375576E1,7.344055E-1,5.5594897E0,7.7941635E1,1.6746521E-2,0E0,1.0208206E0,3.506718E0,0E0,0E0,5.4751587E-1,1.3702386E1,6.362562E0,7.224045E-1,0E0,1.1403332E0,1.6518545E-1,0E0,0E0,0E0,0E0,0E0,0E0,0E0,0E0,0E0,0E0,0E0,0E0,0E0,0E0,0E0,0E0,0E0,0E0,0E0,0E0,0E0,0E0,0E0,0E0],"parents":[2147483647,0,0,1,1,2,2,3,3,4,4,5,5,6,6,7,7,8,8,9,9,10,10,11,11,12,12,13,13,14,14,15,15,16,16,17,17,18,18,20,20,21,21,24,24,25,25,26,26,27,27,29,29,30,30],"right_children":[2,4,6,8,10,12,14,16,18,20,22,24,26,28,30,32,34,36,38,-1,40,42,-1,-1,44,46,48,50,-1,52,54,-1,-1,-1,-1,-1,-1,-1,-1,-1,-1,-1,-1,-1,-1,-1,-1,-1,-1,-1,-1,-1,-1,-1,-1],"split_conditions":[2.2008264E-2,1.0762247E0,1E0,4.518487E-2,1.1951581E0,1E0,-6.1428014E-2,-1.9085713E-2,1E0,-1.5174997E0,-2.4147934E-1,-1.7159437E0,-8.941935E-2,9.792746E-1,1E0,1.4698674E-2,4.1488484E-1,1E0,1.224133E0,-3.532716E-3,-1.083864E-1,-1.0123909E0,-1.0901198E-2,-5.402729E-4,-1.5911479E0,1.019067E0,1.4460031E0,-7.531053E-1,-1.1552847E-2,1.5070705E0,1.0290552E0,1.9937387E-2,6.068409E-3,-8.790112E-3,1.2979378E-2,-1.2431473E-2,1.650894E-2,2.0353412E-2,8.330846E-3,-1.3734091E-2,-4.0538716E-3,-7.594808E-3,1.0767675E-2,-6.4989626E-3,-1.2880257E-2,1.6071877E-2,-9.62401E-3,-1.1943743E-2,6.770512E-3,9.9802E-3,1.970836E-2,-1.2061874E-2,-3.6273228E-3,4.360233E-3,1.5714308E-2],"split_indices":[23,22,24,26,8,25,26,23,24,26,16,21,26,22,25,26,18,25,9,0,23,16,0,0,26,22,20,8,0,23,26,0,0,0,0,0,0,0,0,0,0,0,0,0,0,0,0,0,0,0,0,0,0,0,0],"split_type":[0,0,0,0,0,0,0,0,0,0,0,0,0,0,0,0,0,0,0,0,0,0,0,0,0,0,0,0,0,0,0,0,0,0,0,0,0,0,0,0,0,0,0,0,0,0,0,0,0,0,0,0,0,0,0],"sum_hessian":[3.851676E2,2.0098524E2,1.8418236E2,1.6553134E2,3.5453907E1,1.4500677E2,3.9175587E1,9.4871185E1,7.066016E1,3.0416409E1,5.037498E0,1.20134026E2,2.4872744E1,1.9565691E1,1.9609896E1,9.213913E1,2.7320533E0,5.4283966E1,1.637619E1,2.0214486E0,2.8394958E1,2.2046819E0,2.832816E0,1.3733346E0,1.187607E2,1.0314285E1,1.4558458E1,1.5528836E1,4.036856E0,1.6454153E1,3.1557426E0,9.0679565E1,1.4595635E0,1.5113512E0,1.220702E0,4.3434536E1,1.0849429E1,1.4404474E1,1.9717147E0,2.618329E1,2.211669E0,1.079915E0,1.124767E0,4.521066E0,1.14239624E2,8.374407E0,1.9398777E0,1.3127957E1,1.4305009E0,4.671894E0,1.0856942E1,1.3416677E1,3.0374744E0,1.206394E0,1.9493487E0],"tree_param":{"num_deleted":"0","num_feature":"32","num_nodes":"55","size_leaf_vector":"1"}},{"base_weights":[-1.3429086E-2,6.8668073E-1,-7.791369E-1,1.0891398E0,-1.178512E0,-1.0567852E0,2.4610983E-1,1.9075693E0,-2.5150048E-2,-1.2578799E0,-5.7126456E-1,-1.2498492E0,-1.1465961E-1,1.117637E0,-6.384913E-1,1.9561845E0,1.8024673E-1,-6.410869E-1,1.9263428E-2,-3.5117408E-3,-1.3084712E0,2.197148E-1,-1.0852107E-2,-5.3719606E-4,-1.2631816E0,1.0704604E0,-9.7308266E-1,1.7375771E0,-1.1501896E-2,-1.0743947E0,1.3362641E0,5.9387335E-3,1.9714426E-2,-8.75446E-3,1.2894171E-2,-1.23699885E-2,1.6329883E-2,-1.3675329E-2,-4.029802E-3,-7.566435E-3,1.0691525E-2,-5.060056E-3,-1.2765472E-2,1.5901294E-2,-9.5833E-3,-1.1884822E-2,6.724907E-3,7.907414E-3,1.8808769E-2,-1.2001867E-2,-3.6036118E-3,4.3077944E-3,1.5608172E-2],"categories":[],"categories_nodes":[],"categories_segments":[],"categories_sizes":[],"default_left":[0,0,0,0,0,0,0,0,0,0,0,0,0,0,0,0,0,0,0,0,0,0,0,0,0,0,0,0,0,0,0,0,0,0,0,0,0,0,0,0,0,0,0,0,0,0,0,0,0,0,0,0,0],"id":20,"left_children":[1,3,5,7,9,11,13,15,17,19,21,23,25,27,29,31,33,35,-1,-1,37,39,-1,-1,41,43,45,47,-1,49,51,-1,-1,-1,-1,-1,-1,-1,-1,-1,-1,-1,-1,-1,-1,-1,-1,-1,-1,-1,-1,-1,-1],"loss_changes":[2.0706854E2,1.5275662E2,5.2774117E1,1.5188391E2,1.0305824E0,2.6295715E1,3.1647524E1,7.709137E0,8.716564E1,9.747009E-1,2.6886172E0,1.8543396E0,2.7311377E1,3.0925333E1,1.912446E1,7.6797485E-1,5.495854E0,7.667452E1,0E0,0E0,1.0130081E0,3.4674199E0,0E0,0E0,5.5996704E-1,1.3461878E1,6.2929344E0,7.5910187E-1,0E0,1.1292572E0,1.7377806E-1,0E0,0E0,0E0,0E0,0E0,0E0,0E0,0E0,0E0,0E0,0E0,0E0,0E0,0E0,0E0,0E0,0E0,0E0,0E0,0E0,0E0,0E0],"parents":[2147483647,0,0,1,1,2,2,3,3,4,4,5,5,6,6,7,7,8,8,9,9,10,10,11,11,12,12,13,13,14,14,15,15,16,16,17,17,20,20,21,21,24,24,25,25,26,26,27,27,29,29,30,30],"right_children":[2,4,6,8,10,12,14,16,18,20,22,24,26,28,30,32,34,36,-1,-1,38,40,-1,-1,42,44,46,48,-1,50,52,-1,-1,-1,-1,-1,-1,-1,-1,-1,-1,-1,-1,-1,-1,-1,-1,-1,-1,-1,-1,-1,-1],"split_conditions":[2.2008264E-2,1.0762247E0,1E0,4.518487E-2,1.1951581E0,1E0,-6.1428014E-2,-1.9085713E-2,1E0,-1.5174997E0,-2.4147934E-1,-1.7159437E0,-8.941935E-2,9.792746E-1,1E0,-1.6530607E0,4.1488484E-1,1E0,1.9263428E-2,-3.5117408E-3,-1.083864E-1,-1.0123909E0,-1.0852107E-2,-5.3719606E-4,-1.6473253E0,1.019067E0,1.4460031E0,-1.1084838E0,-1.1501896E-2,1.5070705E0,-3.2374772E-1,5.9387335E-3,1.9714426E-2,-8.75446E-3,1.2894171E-2,-1.23699885E-2,1.6329883E-2,-1.3675329E-2,-4.029802E-3,-7.566435E-3,1.0691525E-2,-5.060056E-3,-1.2765472E-2,1.5901294E-2,-9.5833E-3,-1.1884822E-2,6.724907E-3,7.907414E-3,1.8808769E-2,-1.2001867E-2,-3.6036118E-3,4.3077944E-3,1.5608172E-2],"split_indices":[23,22,24,26,8,25,26,23,24,26,16,21,26,22,25,22,18,25,0,0,23,16,0,0,7,22,20,7,0,23,19,0,0,0,0,0,0,0,0,0,0,0,0,0,0,0,0,0,0,0,0,0,0],"split_type":[0,0,0,0,0,0,0,0,0,0,0,0,0,0,0,0,0,0,0,0,0,0,0,0,0,0,0,0,0,0,0,0,0,0,0,0,0,0,0,0,0,0,0,0,0,0,0,0,0,0,0,0,0],"sum_hessian":[3.8426654E2,2.0078549E2,1.8348105E2,1.6549265E2,3.529285E1,1.4435683E2,3.9124218E1,9.500267E1,7.0489975E1,3.0265654E1,5.027197E0,1.19534706E2,2.4822119E1,1.9575045E1,1.9549175E1,9.227316E1,2.7295055E0,5.408954E1,1.6400436E1,2.019172E0,2.8246483E1,2.2054436E0,2.8217535E0,1.3731189E0,1.1816159E2,1.032317E1,1.449895E1,1.5556333E1,4.018712E0,1.6387718E1,3.1614556E0,1.464206E0,9.080896E1,1.5064284E0,1.223077E0,4.3219967E1,1.0869571E1,2.6037865E1,2.2086182E0,1.07689E0,1.1285536E0,2.7236395E0,1.1543795E2,8.390249E0,1.9329205E0,1.306638E1,1.4325707E0,2.9017153E0,1.2654617E1,1.3354233E1,3.0334857E0,1.2081428E0,1.9533129E0],"tree_param":{"num_deleted":"0","num_feature":"32","num_nodes":"53","size_leaf_vector":"1"}},{"base_weights":[-1.3281915E-2,6.80667E-1,-7.7433693E-1,1.0789489E0,-1.1727821E0,-1.0510887E0,2.4445845E-1,1.8865813E0,-2.4657512E-2,-1.2520723E0,-5.678319E-1,-1.243737E0,-1.1371771E-1,1.1069072E0,-6.3380355E-1,1.9344971E0,1.7967331E-1,-6.369051E-1,1.9056976E0,-3.490895E-3,-1.3026657E0,2.1843635E-1,-1.0803555E-2,-5.3413585E-4,-1.2570701E0,1.0595828E0,-9.674377E-1,1.719375E0,-1.1451549E-2,-1.0686654E0,1.3259364E0,5.9002424E-3,1.9495135E-2,-8.719103E-3,1.281012E-2,-1.2309295E-2,1.6155005E-2,1.9929698E-2,8.130754E-3,-1.3617546E-2,-4.005884E-3,-7.5382604E-3,1.0616223E-2,-6.379549E-3,-1.2758378E-2,1.5734544E-2,-9.5429635E-3,-1.1826614E-2,6.679707E-3,1.0263168E-2,1.9608213E-2,-1.1507206E-2,-1.5138198E-3,4.255843E-3,1.5503948E-2],"categories":[],"categories_nodes":[],"categories_segments":[],"categories_sizes":[],"default_left":[0,0,0,0,0,0,0,0,0,0,0,0,0,0,0,0,0,0,0,0,0,0,0,0,0,0,0,0,0,0,0,0,0,0,0,0,0,0,0,0,0,0,0,0,0,0,0,0,0,0,0,0,0,0,0],"id":21,"left_children":[1,3,5,7,9,11,13,15,17,19,21,23,25,27,29,31,33,35,37,-1,39,41,-1,-1,43,45,47,49,-1,51,53,-1,-1,-1,-1,-1,-1,-1,-1,-1,-1,-1,-1,-1,-1,-1,-1,-1,-1,-1,-1,-1,-1,-1,-1],"loss_changes":[2.0350667E2,1.5005756E2,5.2072044E1,1.4838788E2,1.0221214E0,2.5989578E1,3.105148E1,7.513489E0,8.54988E1,9.667053E-1,2.6606312E0,1.8362732E0,2.6838171E1,3.0355562E1,1.8877195E1,7.35199E-1,5.4331584E0,7.543431E1,4.0950775E-2,0E0,1.0054703E0,3.4286547E0,0E0,0E0,5.636749E-1,1.3227547E1,6.2242565E0,7.619629E-1,0E0,1.1295242E0,1.8227673E-1,0E0,0E0,0E0,0E0,0E0,0E0,0E0,0E0,0E0,0E0,0E0,0E0,0E0,0E0,0E0,0E0,0E0,0E0,0E0,0E0,0E0,0E0,0E0,0E0],"parents":[2147483647,0,0,1,1,2,2,3,3,4,4,5,5,6,6,7,7,8,8,9,9,10,10,11,11,12,12,13,13,14,14,15,15,16,16,17,17,18,18,20,20,21,21,24,24,25,25,26,26,27,27,29,29,30,30],"right_children":[2,4,6,8,10,12,14,16,18,20,22,24,26,28,30,32,34,36,38,-1,40,42,-1,-1,44,46,48,50,-1,52,54,-1,-1,-1,-1,-1,-1,-1,-1,-1,-1,-1,-1,-1,-1,-1,-1,-1,-1,-1,-1,-1,-1,-1,-1],"split_conditions":[2.2008264E-2,1.0762247E0,1E0,4.518487E-2,1.1951581E0,1E0,-6.1428014E-2,-1.9085713E-2,1E0,-1.5174997E0,-2.4147934E-1,-1.7159437E0,-8.941935E-2,9.792746E-1,1E0,-1.6530607E0,4.1488484E-1,1E0,1.224133E0,-3.490895E-3,-1.083864E-1,-1.0123909E0,-1.0803555E-2,-5.3413585E-4,-1.5911479E0,1.019067E0,1.4460031E0,-6.123713E-1,-1.1451549E-2,1.3446627E0,-3.1105453E-1,5.9002424E-3,1.9495135E-2,-8.719103E-3,1.281012E-2,-1.2309295E-2,1.6155005E-2,1.9929698E-2,8.130754E-3,-1.3617546E-2,-4.005884E-3,-7.5382604E-3,1.0616223E-2,-6.379549E-3,-1.2758378E-2,1.5734544E-2,-9.5429635E-3,-1.1826614E-2,6.679707E-3,1.0263168E-2,1.9608213E-2,-1.1507206E-2,-1.5138198E-3,4.255843E-3,1.5503948E-2],"split_indices":[23,22,24,26,8,25,26,23,24,26,16,21,26,22,25,22,18,25,9,0,23,16,0,0,26,22,20,7,0,18,7,0,0,0,0,0,0,0,0,0,0,0,0,0,0,0,0,0,0,0,0,0,0,0,0],"split_type":[0,0,0,0,0,0,0,0,0,0,0,0,0,0,0,0,0,0,0,0,0,0,0,0,0,0,0,0,0,0,0,0,0,0,0,0,0,0,0,0,0,0,0,0,0,0,0,0,0,0,0,0,0,0,0],"sum_hessian":[3.83334E2,2.0056212E2,1.827719E2,1.6543103E2,3.513108E1,1.4370367E2,3.9068226E1,9.511515E1,7.031589E1,3.0114317E1,5.0167656E0,1.18933624E2,2.4770052E1,1.9580215E1,1.9488008E1,9.238831E1,2.7268324E0,5.389284E1,1.6423046E1,2.0169E0,2.8097416E1,2.206126E0,2.8106399E0,1.3729044E0,1.1756072E2,1.033084E1,1.4439212E1,1.5579711E1,4.0005045E0,1.6321087E1,3.1669223E0,1.4655373E0,9.0922775E1,1.5014914E0,1.225341E0,4.300475E1,1.088809E1,1.4445221E1,1.9778243E0,2.5891842E1,2.2055738E0,1.0738583E0,1.1322676E0,4.4883795E0,1.1307234E2,8.404899E0,1.9259412E0,1.3004613E1,1.4345986E0,5.3819194E0,1.0197791E1,1.4747379E1,1.5737073E0,1.209879E0,1.9570434E0],"tree_param":{"num_deleted":"0","num_feature":"32","num_nodes":"55","size_leaf_vector":"1"}},{"base_weights":[-1.31030865E-2,6.748388E-1,-7.6958764E-1,1.0690718E0,-1.16713E0,-1.0454792E0,2.4299096E-1,1.8661896E0,-2.4047486E-2,-1.2074515E0,-2.548777E-3,-1.2377181E0,-1.12793975E-1,1.0965811E0,-6.290941E-1,1.9134336E0,1.790991E-1,-6.327852E-1,1.8863002E0,-4.2453182E-1,-1.2489336E0,-5.310941E-4,-1.2510533E0,1.0489206E0,-9.618555E-1,1.7018306E0,-1.1401792E-2,-1.0629444E0,1.3157612E0,1.9284958E-2,5.774916E-3,-8.684037E-3,1.2727201E-2,-1.2249374E-2,1.5984157E-2,1.9722424E-2,8.072224E-3,1.4084255E-3,-7.914118E-3,-1.2972723E-2,-4.665128E-3,-4.790896E-3,-1.2640361E-2,1.5571486E-2,-9.502998E-3,-1.1769101E-2,6.634907E-3,9.5966365E-3,1.9136926E-2,-1.1890007E-2,-3.5198664E-3,4.2044357E-3,1.5401995E-2],"categories":[],"categories_nodes":[],"categories_segments":[],"categories_sizes":[],"default_left":[0,0,0,0,0,0,0,0,0,0,0,0,0,0,0,0,0,0,0,0,0,0,0,0,0,0,0,0,0,0,0,0,0,0,0,0,0,0,0,0,0,0,0,0,0,0,0,0,0,0,0,0,0],"id":22,"left_children":[1,3,5,7,9,11,13,15,17,19,-1,21,23,25,27,29,31,33,35,37,39,-1,41,43,45,47,-1,49,51,-1,-1,-1,-1,-1,-1,-1,-1,-1,-1,-1,-1,-1,-1,-1,-1,-1,-1,-1,-1,-1,-1,-1,-1],"loss_changes":[2.0003047E2,1.474339E2,5.139263E1,1.4498782E2,1.0152969E0,2.568782E1,3.047175E1,7.325592E0,8.39165E1,5.798073E-1,0E0,1.818634E0,2.6374908E1,2.9805368E1,1.8632648E1,7.674866E-1,5.371384E0,7.4220215E1,2.5409698E-2,7.8242993E-1,6.029625E-1,0E0,5.766144E-1,1.2999159E1,6.156514E0,7.737274E-1,0E0,1.1276932E0,1.9079876E-1,0E0,0E0,0E0,0E0,0E0,0E0,0E0,0E0,0E0,0E0,0E0,0E0,0E0,0E0,0E0,0E0,0E0,0E0,0E0,0E0,0E0,0E0,0E0,0E0],"parents":[2147483647,0,0,1,1,2,2,3,3,4,4,5,5,6,6,7,7,8,8,9,9,11,11,12,12,13,13,14,14,15,15,16,16,17,17,18,18,19,19,20,20,22,22,23,23,24,24,25,25,27,27,28,28],"right_children":[2,4,6,8,10,12,14,16,18,20,-1,22,24,26,28,30,32,34,36,38,40,-1,42,44,46,48,-1,50,52,-1,-1,-1,-1,-1,-1,-1,-1,-1,-1,-1,-1,-1,-1,-1,-1,-1,-1,-1,-1,-1,-1,-1,-1],"split_conditions":[2.2008264E-2,1.0762247E0,1E0,4.518487E-2,1.5414448E0,1E0,-6.1428014E-2,-1.9085713E-2,1E0,-1.5174997E0,-2.548777E-3,-1.7159437E0,-8.941935E-2,9.792746E-1,1E0,1.4698674E-2,4.1488484E-1,1E0,1.224133E0,1.05621316E-1,-9.6338935E-2,-5.310941E-4,-1.6577778E0,1.019067E0,1.4460031E0,-7.531053E-1,-1.1401792E-2,1.5070705E0,1.0290552E0,1.9284958E-2,5.774916E-3,-8.684037E-3,1.2727201E-2,-1.2249374E-2,1.5984157E-2,1.9722424E-2,8.072224E-3,1.4084255E-3,-7.914118E-3,-1.2972723E-2,-4.665128E-3,-4.790896E-3,-1.2640361E-2,1.5571486E-2,-9.502998E-3,-1.1769101E-2,6.634907E-3,9.5966365E-3,1.9136926E-2,-1.1890007E-2,-3.5198664E-3,4.2044357E-3,1.5401995E-2],"split_indices":[23,22,24,26,8,25,26,23,24,26,0,21,26,22,25,26,18,25,9,4,23,0,19,22,20,8,0,23,26,0,0,0,0,0,0,0,0,0,0,0,0,0,0,0,0,0,0,0,0,0,0,0,0],"split_type":[0,0,0,0,0,0,0,0,0,0,0,0,0,0,0,0,0,0,0,0,0,0,0,0,0,0,0,0,0,0,0,0,0,0,0,0,0,0,0,0,0,0,0,0,0,0,0,0,0,0,0,0,0],"sum_hessian":[3.8236755E2,2.0031259E2,1.8205498E2,1.6534395E2,3.4968647E1,1.4304723E2,3.900775E1,9.520901E1,7.013494E1,3.3178562E1,1.7900839E0,1.18330635E2,2.4716589E1,1.9582817E1,1.9424932E1,9.248497E1,2.7240372E0,5.3693966E1,1.6440975E1,2.2347462E0,3.0943817E1,1.3726909E0,1.1695794E2,1.0337324E1,1.4379265E1,1.5600578E1,3.9822383E0,1.6252789E1,3.1721456E0,9.101525E1,1.4697194E0,1.4965419E0,1.2274952E0,4.278894E1,1.0905026E1,1.446149E1,1.979486E0,1.1219267E0,1.1128196E0,2.8523573E1,2.4202445E0,2.561324E0,1.14396614E2,8.418383E0,1.9189414E0,1.2942679E1,1.436585E0,4.692412E0,1.0908166E1,1.323395E1,3.0188382E0,1.2117218E0,1.9604238E0],"tree_param":{"num_deleted":"0","num_feature":"32","num_nodes":"53","size_leaf_vector":"1"}},{"base_weights":[-1.2927288E-2,6.6914725E-1,-7.6490206E-1,1.0594327E0,-1.1614673E0,-1.0399362E0,2.414434E-1,1.846365E0,-2.34475E-2,-1.2408962E0,-5.590187E-1,-1.2317687E0,-1.1188763E-1,1.0863365E0,-6.245123E-1,1.8929628E0,1.7852427E-1,-6.287256E-1,1.8674291E0,-3.4481105E-3,-1.291522E0,2.2437456E-1,-1.0725417E-2,-5.2806956E-4,-1.245107E0,1.038467E0,-9.5633465E-1,1.6844676E0,-1.1352614E-2,-1.0573323E0,1.3057357E0,5.7377475E-3,1.9078026E-2,-8.649257E-3,1.2645391E-2,-1.219021E-2,1.5817188E-2,1.9521082E-2,8.0143055E-3,-1.350723E-2,-3.9544418E-3,-7.4707493E-3,1.0603649E-2,-4.882834E-3,-1.2586033E-2,1.5411995E-2,-9.463394E-3,-1.1712267E-2,6.590499E-3,1.0014829E-2,1.9239426E-2,-1.1395772E-2,-1.4568937E-3,4.1536787E-3,1.5301029E-2],"categories":[],"categories_nodes":[],"categories_segments":[],"categories_sizes":[],"default_left":[0,0,0,0,0,0,0,0,0,0,0,0,0,0,0,0,0,0,0,0,0,0,0,0,0,0,0,0,0,0,0,0,0,0,0,0,0,0,0,0,0,0,0,0,0,0,0,0,0,0,0,0,0,0,0],"id":23,"left_children":[1,3,5,7,9,11,13,15,17,19,21,23,25,27,29,31,33,35,37,-1,39,41,-1,-1,43,45,47,49,-1,51,53,-1,-1,-1,-1,-1,-1,-1,-1,-1,-1,-1,-1,-1,-1,-1,-1,-1,-1,-1,-1,-1,-1,-1,-1],"loss_changes":[1.9663327E2,1.4486615E2,5.0717697E1,1.4169995E2,1.019722E0,2.538942E1,2.990586E1,7.145111E0,8.237553E1,9.5262146E-1,2.6506753E0,1.8012543E0,2.592132E1,2.9265583E1,1.8392845E1,7.369995E-1,5.310515E0,7.303145E1,1.1219025E-2,0E0,9.938545E-1,3.390213E0,0E0,0E0,5.8413696E-1,1.2776502E1,6.089674E0,7.916908E-1,0E0,1.1225376E0,1.9890738E-1,0E0,0E0,0E0,0E0,0E0,0E0,0E0,0E0,0E0,0E0,0E0,0E0,0E0,0E0,0E0,0E0,0E0,0E0,0E0,0E0,0E0,0E0,0E0,0E0],"parents":[2147483647,0,0,1,1,2,2,3,3,4,4,5,5,6,6,7,7,8,8,9,9,10,10,11,11,12,12,13,13,14,14,15,15,16,16,17,17,18,18,20,20,21,21,24,24,25,25,26,26,27,27,29,29,30,30],"right_children":[2,4,6,8,10,12,14,16,18,20,22,24,26,28,30,32,34,36,38,-1,40,42,-1,-1,44,46,48,50,-1,52,54,-1,-1,-1,-1,-1,-1,-1,-1,-1,-1,-1,-1,-1,-1,-1,-1,-1,-1,-1,-1,-1,-1,-1,-1],"split_conditions":[2.2008264E-2,1.0762247E0,1E0,4.518487E-2,1.1951581E0,1E0,-6.1428014E-2,-1.9085713E-2,1E0,-1.5174997E0,-2.4147934E-1,-1.7159437E0,-8.941935E-2,9.792746E-1,1E0,-1.6530607E0,4.1488484E-1,1E0,1.224133E0,-3.4481105E-3,-1.083864E-1,-1.0123909E0,-1.0725417E-2,-5.2806956E-4,-1.6473253E0,1.019067E0,1.4460031E0,-6.123713E-1,-1.1352614E-2,1.3446627E0,-8.19663E-1,5.7377475E-3,1.9078026E-2,-8.649257E-3,1.2645391E-2,-1.219021E-2,1.5817188E-2,1.9521082E-2,8.0143055E-3,-1.350723E-2,-3.9544418E-3,-7.4707493E-3,1.0603649E-2,-4.882834E-3,-1.2586033E-2,1.5411995E-2,-9.463394E-3,-1.1712267E-2,6.590499E-3,1.0014829E-2,1.9239426E-2,-1.1395772E-2,-1.4568937E-3,4.1536787E-3,1.5301029E-2],"split_indices":[23,22,24,26,8,25,26,23,24,26,16,21,26,22,25,22,18,25,9,0,23,16,0,0,7,22,20,7,0,18,16,0,0,0,0,0,0,0,0,0,0,0,0,0,0,0,0,0,0,0,0,0,0,0,0],"split_type":[0,0,0,0,0,0,0,0,0,0,0,0,0,0,0,0,0,0,0,0,0,0,0,0,0,0,0,0,0,0,0,0,0,0,0,0,0,0,0,0,0,0,0,0,0,0,0,0,0,0,0,0,0,0,0],"sum_hessian":[3.813754E2,2.000402E2,1.813352E2,1.6523376E2,3.480643E1,1.4238737E2,3.8947826E1,9.5284904E1,6.994887E1,2.9815674E1,4.990756E0,1.177256E2,2.4661777E1,1.9584846E1,1.9362982E1,9.256378E1,2.721121E0,5.3493008E1,1.6455856E1,2.0121026E0,2.7803572E1,2.1990757E0,2.7916806E0,1.3724785E0,1.1635313E2,1.0342654E1,1.4319122E1,1.5620929E1,3.9639175E0,1.6185854E1,3.1771278E0,1.4709144E0,9.109287E1,1.49158E0,1.2295411E0,4.257259E1,1.0920418E1,1.4474784E1,1.981073E0,2.5604588E1,2.198984E0,1.0663266E0,1.1327491E0,2.6899374E0,1.13663185E2,8.430732E0,1.9119225E0,1.2880592E1,1.4385302E0,5.400541E0,1.0220388E1,1.4617125E1,1.5687292E0,1.2133633E0,1.9637645E0],"tree_param":{"num_deleted":"0","num_feature":"32","num_nodes":"55","size_leaf_vector":"1"}},{"base_weights":[-1.2752135E-2,6.6357344E-1,-7.602747E-1,1.0500242E0,-1.1559563E0,-1.0344619E0,2.400221E-1,1.8270869E0,-2.285714E-2,-1.2353239E0,-5.556994E-1,-1.2258898E0,-1.10998526E-1,1.0764413E0,-6.199062E-1,1.8730633E0,1.7794894E-1,-6.247246E-1,1.8490637E-2,-3.4276568E-3,-1.2859691E0,2.2306035E-1,-1.0678238E-2,-1.2469053E0,-3.3648786E-1,1.028215E0,-9.50874E-1,1.6677426E0,-1.1304001E-2,-1.0517249E0,1.295856E0,1.887958E-2,5.6154504E-3,-8.61476E-3,1.2564673E-2,-1.2131778E-2,1.5653953E-2,-1.3452202E-2,-3.930992E-3,-7.443243E-3,1.0529331E-2,-6.186637E-3,-1.266502E-2,-9.098329E-3,5.365218E-3,1.5255939E-2,-9.424147E-3,-1.1656097E-2,6.546481E-3,9.373347E-3,1.8770205E-2,-1.17807835E-2,-3.437363E-3,1.5201284E-2,4.1032447E-3],"categories":[],"categories_nodes":[],"categories_segments":[],"categories_sizes":[],"default_left":[0,0,0,0,0,0,0,0,0,0,0,0,0,0,0,0,0,0,0,0,0,0,0,0,0,0,0,0,0,0,0,0,0,0,0,0,0,0,0,0,0,0,0,0,0,0,0,0,0,0,0,0,0,0,0],"id":24,"left_children":[1,3,5,7,9,11,13,15,17,19,21,23,25,27,29,31,33,35,-1,-1,37,39,-1,41,43,45,47,49,-1,51,53,-1,-1,-1,-1,-1,-1,-1,-1,-1,-1,-1,-1,-1,-1,-1,-1,-1,-1,-1,-1,-1,-1,-1,-1],"loss_changes":[1.9330382E2,1.4236865E2,5.0057472E1,1.3851959E2,1.0116005E0,2.5094452E1,2.9352781E1,6.9715576E0,8.087437E1,9.452896E-1,2.6231847E0,1.7882538E0,2.5477135E1,2.874381E1,1.8155613E1,7.687683E-1,5.250537E0,7.1867226E1,0E0,0E0,9.870415E-1,3.352424E0,0E0,6.3253784E-1,2.5384374E0,1.2559363E1,6.023736E0,7.83741E-1,0E0,1.1263103E0,2.0677567E-1,0E0,0E0,0E0,0E0,0E0,0E0,0E0,0E0,0E0,0E0,0E0,0E0,0E0,0E0,0E0,0E0,0E0,0E0,0E0,0E0,0E0,0E0,0E0,0E0],"parents":[2147483647,0,0,1,1,2,2,3,3,4,4,5,5,6,6,7,7,8,8,9,9,10,10,11,11,12,12,13,13,14,14,15,15,16,16,17,17,20,20,21,21,23,23,24,24,25,25,26,26,27,27,29,29,30,30],"right_children":[2,4,6,8,10,12,14,16,18,20,22,24,26,28,30,32,34,36,-1,-1,38,40,-1,42,44,46,48,50,-1,52,54,-1,-1,-1,-1,-1,-1,-1,-1,-1,-1,-1,-1,-1,-1,-1,-1,-1,-1,-1,-1,-1,-1,-1,-1],"split_conditions":[2.2008264E-2,1.0762247E0,1E0,4.518487E-2,1.1951581E0,1E0,-6.1428014E-2,-1.9085713E-2,1E0,-1.5174997E0,-2.4147934E-1,1.656718E0,-8.941935E-2,9.792746E-1,1E0,1.4698674E-2,4.1488484E-1,1E0,1.8490637E-2,-3.4276568E-3,-1.083864E-1,-1.0123909E0,-1.0678238E-2,-1.5911479E0,6.0652333E-1,1.019067E0,1.4460031E0,-7.531053E-1,-1.1304001E-2,1.5070705E0,8.107854E-3,1.887958E-2,5.6154504E-3,-8.61476E-3,1.2564673E-2,-1.2131778E-2,1.5653953E-2,-1.3452202E-2,-3.930992E-3,-7.443243E-3,1.0529331E-2,-6.186637E-3,-1.266502E-2,-9.098329E-3,5.365218E-3,1.5255939E-2,-9.424147E-3,-1.1656097E-2,6.546481E-3,9.373347E-3,1.8770205E-2,-1.17807835E-2,-3.437363E-3,1.5201284E-2,4.1032447E-3],"split_indices":[23,22,24,26,8,25,26,23,24,26,16,23,26,22,25,26,18,25,0,0,23,16,0,26,16,22,20,8,0,23,22,0,0,0,0,0,0,0,0,0,0,0,0,0,0,0,0,0,0,0,0,0,0,0,0],"split_type":[0,0,0,0,0,0,0,0,0,0,0,0,0,0,0,0,0,0,0,0,0,0,0,0,0,0,0,0,0,0,0,0,0,0,0,0,0,0,0,0,0,0,0,0,0,0,0,0,0,0,0,0,0,0,0],"sum_hessian":[3.803514E2,1.9974406E2,1.8060735E2,1.6510109E2,3.4642975E1,1.4172543E2,3.8881916E1,9.534324E1,6.975785E1,2.9662874E1,4.9801006E0,1.17119774E2,2.4605661E1,1.9582748E1,1.9299168E1,9.262515E1,2.7180872E0,5.3290077E1,1.6467773E1,2.0098467E0,2.7653027E1,2.1996517E0,2.780449E0,1.14023575E2,3.096195E0,1.0346857E1,1.4258803E1,1.56372E1,3.9455473E0,1.6117294E1,3.181873E0,9.115046E1,1.4746951E0,1.4866071E0,1.2314801E0,4.235577E1,1.0934307E1,2.5457066E1,2.195961E0,1.0632753E0,1.1363765E0,4.4343615E0,1.0958922E2,1.8433825E0,1.2528125E0,8.441972E0,1.9048855E0,1.2818369E1,1.4404349E0,4.7027774E0,1.0934423E1,1.311305E1,3.0042443E0,1.967061E0,1.2148122E0],"tree_param":{"num_deleted":"0","num_feature":"32","num_nodes":"55","size_leaf_vector":"1"}},{"base_weights":[-1.26247695E-2,6.580709E-1,-7.5572854E-1,1.0407735E0,-1.1505176E0,-1.0290701E0,2.3852044E-1,1.8083293E0,-2.2400342E-2,-1.2298273E0,-5.524223E-1,-1.2200949E0,-1.1012567E-1,1.0666164E0,-6.154255E-1,1.8537077E0,1.7737319E-1,-6.207805E-1,1.8305181E0,-3.4073289E-3,-1.2804977E0,2.2175018E-1,-1.0631563E-2,-4.700723E-4,-1.2335106E0,1.0181586E0,-9.454717E-1,1.6511755E0,-1.1255943E-2,-1.0462244E0,1.2861185E0,1.8683968E-2,5.5795764E-3,-8.580539E-3,1.2485023E-2,-1.207406E-2,1.549432E-2,1.9143373E-2,7.8254305E-3,-1.33980615E-2,-3.9076875E-3,-7.415927E-3,1.0455831E-2,-4.617905E-3,-1.2466452E-2,1.5103208E-2,-9.3852505E-3,-1.1600572E-2,6.5028467E-3,9.775182E-3,1.8889563E-2,-1.1724178E-2,-3.4148865E-3,4.053321E-3,1.5104051E-2],"categories":[],"categories_nodes":[],"categories_segments":[],"categories_sizes":[],"default_left":[0,0,0,0,0,0,0,0,0,0,0,0,0,0,0,0,0,0,0,0,0,0,0,0,0,0,0,0,0,0,0,0,0,0,0,0,0,0,0,0,0,0,0,0,0,0,0,0,0,0,0,0,0,0,0],"id":25,"left_children":[1,3,5,7,9,11,13,15,17,19,21,23,25,27,29,31,33,35,37,-1,39,41,-1,-1,43,45,47,49,-1,51,53,-1,-1,-1,-1,-1,-1,-1,-1,-1,-1,-1,-1,-1,-1,-1,-1,-1,-1,-1,-1,-1,-1,-1,-1],"loss_changes":[1.9004144E2,1.3992343E2,4.940332E1,1.3546179E2,1.0035515E0,2.4803696E1,2.8812767E1,6.8046265E0,7.9373726E1,9.381714E-1,2.5960045E0,1.7914429E0,2.5042099E1,2.8231583E1,1.792297E1,7.4038696E-1,5.19143E0,7.072685E1,3.725052E-2,0E0,9.804611E-1,3.3151445E0,0E0,0E0,6.016083E-1,1.2347556E1,5.9586716E0,8.210449E-1,0E0,1.1159515E0,2.1479845E-1,0E0,0E0,0E0,0E0,0E0,0E0,0E0,0E0,0E0,0E0,0E0,0E0,0E0,0E0,0E0,0E0,0E0,0E0,0E0,0E0,0E0,0E0,0E0,0E0],"parents":[2147483647,0,0,1,1,2,2,3,3,4,4,5,5,6,6,7,7,8,8,9,9,10,10,11,11,12,12,13,13,14,14,15,15,16,16,17,17,18,18,20,20,21,21,24,24,25,25,26,26,27,27,29,29,30,30],"right_children":[2,4,6,8,10,12,14,16,18,20,22,24,26,28,30,32,34,36,38,-1,40,42,-1,-1,44,46,48,50,-1,52,54,-1,-1,-1,-1,-1,-1,-1,-1,-1,-1,-1,-1,-1,-1,-1,-1,-1,-1,-1,-1,-1,-1,-1,-1],"split_conditions":[2.2008264E-2,1.0762247E0,1E0,4.518487E-2,1.1951581E0,1E0,-6.1428014E-2,-1.9085713E-2,1E0,-1.5174997E0,-2.4147934E-1,-1.7159437E0,-8.941935E-2,9.792746E-1,1E0,1.4698674E-2,4.1488484E-1,1E0,1.224133E0,-3.4073289E-3,-1.083864E-1,-1.0123909E0,-1.0631563E-2,-4.700723E-4,-1.6577778E0,1.019067E0,1.4460031E0,-6.123713E-1,-1.1255943E-2,1.5070705E0,1.0290552E0,1.8683968E-2,5.5795764E-3,-8.580539E-3,1.2485023E-2,-1.207406E-2,1.549432E-2,1.9143373E-2,7.8254305E-3,-1.33980615E-2,-3.9076875E-3,-7.415927E-3,1.0455831E-2,-4.617905E-3,-1.2466452E-2,1.5103208E-2,-9.3852505E-3,-1.1600572E-2,6.5028467E-3,9.775182E-3,1.8889563E-2,-1.1724178E-2,-3.4148865E-3,4.053321E-3,1.5104051E-2],"split_indices":[23,22,24,26,8,25,26,23,24,26,16,21,26,22,25,26,18,25,9,0,23,16,0,0,19,22,20,7,0,23,26,0,0,0,0,0,0,0,0,0,0,0,0,0,0,0,0,0,0,0,0,0,0,0,0],"split_type":[0,0,0,0,0,0,0,0,0,0,0,0,0,0,0,0,0,0,0,0,0,0,0,0,0,0,0,0,0,0,0,0,0,0,0,0,0,0,0,0,0,0,0,0,0,0,0,0,0,0,0,0,0,0,0],"sum_hessian":[3.7930783E2,1.9942723E2,1.798806E2,1.6494824E2,3.4478985E1,1.410639E2,3.8816696E1,9.538464E1,6.95636E1,2.9509657E1,4.9693274E0,1.1651562E2,2.4548288E1,1.9580185E1,1.9236511E1,9.266971E1,2.714937E0,5.308526E1,1.6478344E1,2.0075963E0,2.7502062E1,2.2001512E0,2.7691762E0,1.3683636E0,1.15147255E2,1.0349964E1,1.4198323E1,1.5653052E1,3.9271314E0,1.6050123E1,3.1863863E0,9.119395E1,1.4757596E0,1.4816234E0,1.2333136E0,4.2138527E1,1.0946729E1,1.4492502E1,1.9858418E0,2.5309116E1,2.1929455E0,1.0602188E0,1.1399325E0,2.532107E0,1.1261515E2,8.452131E0,1.8978322E0,1.2756023E1,1.4422997E0,5.4170384E0,1.0236014E1,1.3049746E1,3.0003788E0,1.2164648E0,1.9699216E0],"tree_param":{"num_deleted":"0","num_feature":"32","num_nodes":"55","size_leaf_vector":"1"}},{"base_weights":[-1.2462682E-2,6.527342E-1,-7.5123376E-1,1.0317994E0,-1.1451497E0,-1.0237375E0,2.3707253E-1,1.7900739E0,-2.1828324E-2,-1.2244045E0,-5.491864E-1,-1.2143662E0,-1.0926922E-1,1.0571235E0,-6.109951E-1,1.8348763E0,1.7679708E-1,-6.1689204E-1,1.8131047E0,-3.387126E-3,-1.2751054E0,2.2044419E-1,-1.0585378E-2,-1.2354791E0,-3.2690623E-1,1.0082906E0,-9.401268E-1,1.6352111E0,-1.1208427E-2,-1.0407796E0,1.2765207E0,5.4610847E-3,1.8496253E-2,-8.546593E-3,1.2406421E-2,-1.2017043E-2,1.5338157E-2,1.8958183E-2,7.770043E-3,-1.3344791E-2,-3.8845276E-3,-7.388797E-3,1.0383138E-2,-6.074072E-3,-1.2551951E-2,-9.013039E-3,5.3991205E-3,1.4953674E-2,-9.346699E-3,-1.15456795E-2,6.459594E-3,9.683588E-3,1.8707572E-2,-1.1235532E-2,-1.3536795E-3,4.00402E-3,1.5007015E-2],"categories":[],"categories_nodes":[],"categories_segments":[],"categories_sizes":[],"default_left":[0,0,0,0,0,0,0,0,0,0,0,0,0,0,0,0,0,0,0,0,0,0,0,0,0,0,0,0,0,0,0,0,0,0,0,0,0,0,0,0,0,0,0,0,0,0,0,0,0,0,0,0,0,0,0,0,0],"id":26,"left_children":[1,3,5,7,9,11,13,15,17,19,21,23,25,27,29,31,33,35,37,-1,39,41,-1,43,45,47,49,51,-1,53,55,-1,-1,-1,-1,-1,-1,-1,-1,-1,-1,-1,-1,-1,-1,-1,-1,-1,-1,-1,-1,-1,-1,-1,-1,-1,-1],"loss_changes":[1.8685512E2,1.3754404E2,4.8758507E1,1.3248138E2,9.955864E-1,2.4516068E1,2.8288387E1,6.6439514E0,7.794824E1,9.3125534E-1,2.5691314E0,1.7865906E0,2.4615948E1,2.7736145E1,1.7693829E1,7.7090454E-1,5.1331816E0,6.9609604E1,2.5363922E-2,0E0,9.7410583E-1,3.2783666E0,0E0,6.47171E-1,2.5162716E0,1.2140879E1,5.894471E0,8.0607986E-1,0E0,1.1206722E0,2.2220182E-1,0E0,0E0,0E0,0E0,0E0,0E0,0E0,0E0,0E0,0E0,0E0,0E0,0E0,0E0,0E0,0E0,0E0,0E0,0E0,0E0,0E0,0E0,0E0,0E0,0E0,0E0],"parents":[2147483647,0,0,1,1,2,2,3,3,4,4,5,5,6,6,7,7,8,8,9,9,10,10,11,11,12,12,13,13,14,14,15,15,16,16,17,17,18,18,20,20,21,21,23,23,24,24,25,25,26,26,27,27,29,29,30,30],"right_children":[2,4,6,8,10,12,14,16,18,20,22,24,26,28,30,32,34,36,38,-1,40,42,-1,44,46,48,50,52,-1,54,56,-1,-1,-1,-1,-1,-1,-1,-1,-1,-1,-1,-1,-1,-1,-1,-1,-1,-1,-1,-1,-1,-1,-1,-1,-1,-1],"split_conditions":[2.2008264E-2,1.0762247E0,1E0,4.518487E-2,1.1951581E0,1E0,-6.1428014E-2,-1.9085713E-2,1E0,-1.5174997E0,-2.4147934E-1,1.656718E0,-8.941935E-2,9.792746E-1,1E0,-1.6530607E0,4.1488484E-1,1E0,1.224133E0,-3.387126E-3,-1.083864E-1,-1.0123909E0,-1.0585378E-2,-1.5911479E0,6.0652333E-1,1.019067E0,1.4460031E0,-6.123713E-1,-1.1208427E-2,1.3446627E0,-3.1105453E-1,5.4610847E-3,1.8496253E-2,-8.546593E-3,1.2406421E-2,-1.2017043E-2,1.5338157E-2,1.8958183E-2,7.770043E-3,-1.3344791E-2,-3.8845276E-3,-7.388797E-3,1.0383138E-2,-6.074072E-3,-1.2551951E-2,-9.013039E-3,5.3991205E-3,1.4953674E-2,-9.346699E-3,-1.15456795E-2,6.459594E-3,9.683588E-3,1.8707572E-2,-1.1235532E-2,-1.3536795E-3,4.00402E-3,1.5007015E-2],"split_indices":[23,22,24,26,8,25,26,23,24,26,16,23,26,22,25,22,18,25,9,0,23,16,0,26,16,22,20,7,0,18,7,0,0,0,0,0,0,0,0,0,0,0,0,0,0,0,0,0,0,0,0,0,0,0,0,0,0],"split_type":[0,0,0,0,0,0,0,0,0,0,0,0,0,0,0,0,0,0,0,0,0,0,0,0,0,0,0,0,0,0,0,0,0,0,0,0,0,0,0,0,0,0,0,0,0,0,0,0,0,0,0,0,0,0,0,0,0],"sum_hessian":[3.782309E2,1.9908722E2,1.7914368E2,1.647727E2,3.4314514E1,1.4039655E2,3.874713E1,9.540948E1,6.936323E1,2.9356071E1,4.958441E0,1.1590685E2,2.4489697E1,1.957363E1,1.9173504E1,9.26978E1,2.7116733E0,5.287864E1,1.6484589E1,2.005351E0,2.7350721E1,2.2005754E0,2.7578657E0,1.1283042E2,3.0764282E0,1.0352E1,1.4137697E1,1.5664955E1,3.908674E0,1.5982836E1,3.1906688E0,1.4791291E0,9.121867E1,1.4766304E0,1.2350428E0,4.1920914E1,1.0957724E1,1.449747E1,1.9871196E0,2.5160784E1,2.1899369E0,1.0571576E0,1.1434176E0,4.4021897E0,1.0842823E2,1.8263873E0,1.2500408E0,8.461237E0,1.8907635E0,1.2693572E1,1.4441249E0,5.423021E0,1.0241934E1,1.442331E1,1.559525E0,1.2177315E0,1.9729373E0],"tree_param":{"num_deleted":"0","num_feature":"32","num_nodes":"57","size_leaf_vector":"1"}},{"base_weights":[-1.2310272E-2,6.475097E-1,-7.468036E-1,1.0230304E0,-1.1398505E0,-1.0184814E0,2.3571698E-1,1.7722973E0,-2.1264942E-2,-1.1803038E0,-2.4253465E-3,-1.2087135E0,-1.0842836E-1,1.0478245E0,-6.065343E-1,1.8165447E0,1.7622083E-1,-6.130575E-1,1.7961398E0,-4.1281515E-1,-1.2217432E0,-4.1304168E-4,-1.2222108E0,9.986059E-1,-9.348379E-1,1.619611E0,-1.1161442E-2,-1.0353311E0,1.2670591E0,5.426429E-3,1.831104E-2,-8.512915E-3,1.2328847E-2,-1.1960705E-2,1.5185346E-2,1.8778026E-2,7.7152136E-3,-7.837932E-3,1.5180239E-3,-1.2701721E-2,-4.5304094E-3,-4.6357196E-3,-1.2359303E-2,1.4807237E-2,-9.308486E-3,-1.1491403E-2,6.4167134E-3,9.027402E-3,1.8268079E-2,-1.1618713E-2,-3.3340668E-3,3.9552297E-3,1.4911909E-2],"categories":[],"categories_nodes":[],"categories_segments":[],"categories_sizes":[],"default_left":[0,0,0,0,0,0,0,0,0,0,0,0,0,0,0,0,0,0,0,0,0,0,0,0,0,0,0,0,0,0,0,0,0,0,0,0,0,0,0,0,0,0,0,0,0,0,0,0,0,0,0,0,0],"id":27,"left_children":[1,3,5,7,9,11,13,15,17,19,-1,21,23,25,27,29,31,33,35,37,39,-1,41,43,45,47,-1,49,51,-1,-1,-1,-1,-1,-1,-1,-1,-1,-1,-1,-1,-1,-1,-1,-1,-1,-1,-1,-1,-1,-1,-1,-1],"loss_changes":[1.837382E2,1.3522057E2,4.8128235E1,1.2959422E2,9.896431E-1,2.4232391E1,2.7772245E1,6.4891663E0,7.655838E1,5.571022E-1,0E0,1.7820129E0,2.4198456E1,2.7253222E1,1.7467005E1,7.444458E-1,5.075774E0,6.851485E1,1.4526367E-2,7.9345137E-1,5.843735E-1,0E0,6.2335205E-1,1.1939164E1,5.831113E0,8.2761765E-1,0E0,1.114954E0,2.2959328E-1,0E0,0E0,0E0,0E0,0E0,0E0,0E0,0E0,0E0,0E0,0E0,0E0,0E0,0E0,0E0,0E0,0E0,0E0,0E0,0E0,0E0,0E0,0E0,0E0],"parents":[2147483647,0,0,1,1,2,2,3,3,4,4,5,5,6,6,7,7,8,8,9,9,11,11,12,12,13,13,14,14,15,15,16,16,17,17,18,18,19,19,20,20,22,22,23,23,24,24,25,25,27,27,28,28],"right_children":[2,4,6,8,10,12,14,16,18,20,-1,22,24,26,28,30,32,34,36,38,40,-1,42,44,46,48,-1,50,52,-1,-1,-1,-1,-1,-1,-1,-1,-1,-1,-1,-1,-1,-1,-1,-1,-1,-1,-1,-1,-1,-1,-1,-1],"split_conditions":[2.2008264E-2,1.0762247E0,1E0,4.518487E-2,1.5414448E0,1E0,-6.1428014E-2,-1.9085713E-2,1E0,-1.5174997E0,-2.4253465E-3,-1.7159437E0,-8.941935E-2,9.792746E-1,1E0,-1.6530607E0,4.1488484E-1,1E0,1.224133E0,-4.1853547E-1,-9.6338935E-2,-4.1304168E-4,-1.6473253E0,1.019067E0,1.4460031E0,-7.531053E-1,-1.1161442E-2,1.5070705E0,-3.2374772E-1,5.426429E-3,1.831104E-2,-8.512915E-3,1.2328847E-2,-1.1960705E-2,1.5185346E-2,1.8778026E-2,7.7152136E-3,-7.837932E-3,1.5180239E-3,-1.2701721E-2,-4.5304094E-3,-4.6357196E-3,-1.2359303E-2,1.4807237E-2,-9.308486E-3,-1.1491403E-2,6.4167134E-3,9.027402E-3,1.8268079E-2,-1.1618713E-2,-3.3340668E-3,3.9552297E-3,1.4911909E-2],"split_indices":[23,22,24,26,8,25,26,23,24,26,0,21,26,22,25,22,18,25,9,21,23,0,7,22,20,8,0,23,19,0,0,0,0,0,0,0,0,0,0,0,0,0,0,0,0,0,0,0,0,0,0,0,0],"split_type":[0,0,0,0,0,0,0,0,0,0,0,0,0,0,0,0,0,0,0,0,0,0,0,0,0,0,0,0,0,0,0,0,0,0,0,0,0,0,0,0,0,0,0,0,0,0,0,0,0,0,0,0,0],"sum_hessian":[3.7713046E2,1.9872635E2,1.7840411E2,1.6457675E2,3.41496E1,1.3973048E2,3.8673622E1,9.5418335E1,6.915842E1,3.23747E1,1.7749046E0,1.1530056E2,2.4429934E1,1.9564882E1,1.910874E1,9.271004E1,2.7082975E0,5.2670315E1,1.64881E1,2.2200294E0,3.0154669E1,1.3642387E0,1.1393632E2,1.0352995E1,1.407694E1,1.5674704E1,3.8901792E0,1.5914015E1,3.194726E0,1.4800713E0,9.1229965E1,1.4716282E0,1.2366692E0,4.1702988E1,1.0967325E1,1.4499771E1,1.9883293E0,1.1054904E0,1.1145389E0,2.7753796E1,2.4008722E0,2.6418393E0,1.1129448E2,8.469314E0,1.8836807E0,1.2631028E1,1.4459113E0,4.7157655E0,1.0958938E1,1.2928121E1,2.985894E0,1.219069E0,1.975657E0],"tree_param":{"num_deleted":"0","num_feature":"32","num_nodes":"53","size_leaf_vector":"1"}},{"base_weights":[-1.215146E-2,6.423999E-1,-7.4242103E-1,1.0144597E0,-1.1345046E0,-1.0132765E0,2.3427886E-1,1.7549826E0,-2.0710077E-2,-1.213959E0,-5.407152E-1,-1.203117E0,-1.0760289E-1,1.038574E0,-6.0219896E-1,1.7986952E0,1.7564443E-1,-6.092757E-1,1.779606E0,-3.3455791E-3,-1.2647469E0,2.2617698E-1,-1.0511372E-2,-1.2243339E0,-3.174524E-1,9.8909825E-1,-9.296036E-1,1.6041256E0,-1.11149745E-2,-1.0299907E0,1.2577307E0,1.8133221E-2,5.310576E-3,-8.479505E-3,1.2252284E-2,-1.1905033E-2,1.5035766E-2,1.8602706E-2,7.660936E-3,-1.3243043E-2,-3.834674E-3,-7.323923E-3,1.0370928E-2,-5.9605967E-3,-1.2441846E-2,-8.929365E-3,5.432138E-3,1.4663788E-2,-9.2706075E-3,-1.1437729E-2,6.3742036E-3,9.455418E-3,1.8383997E-2,-1.1129967E-2,-1.2991615E-3,3.90667E-3,